3903 64
3911 0.490431 0.683687 -1.375051 0.454097 0.602903 0.393811 1.747963 0.131219 -0.182458 -0.281303 -0.299008 1.177255 -0.471164 0.226136 -0.637452 0.453740 0.579066 -2.358380 1.770027 1.314875 -1.822084 -0.053132 1.533926 -0.958050 1.274946 0.189922 0.564034 -1.030015 -0.576669 2.229504 -0.158779 -0.469963 1.732751 1.449382 -0.666661 -0.193573 -0.362619 -0.811997 0.331269 -1.360284 -0.002453 -1.523905 1.309948 0.841641 -1.229336 1.095510 -1.342085 -0.767119 -0.066199 2.130056 -1.202874 -0.064190 0.122880 -1.140310 0.079313 -0.354268 -0.994883 -0.611116 0.151081 0.318186 0.319987 -1.676665 0.410971 0.488391
3912 0.516689 0.716083 -1.316076 0.093718 0.563747 0.419109 1.753645 0.285377 -0.271908 -0.375850 -0.211005 1.168093 -0.626193 0.382614 -0.509547 0.279817 0.438857 -2.213557 1.793083 1.319711 -1.776002 0.044424 1.528427 -0.875965 1.244982 0.219530 0.512900 -0.947154 -0.591762 2.200209 -0.036397 -0.338937 1.637018 1.454286 -0.526453 -0.219361 -0.296492 -0.729059 0.471735 -1.381916 0.013281 -1.463712 1.183557 0.650546 -1.461591 1.028151 -1.263764 -0.963134 -0.207324 2.129860 -1.169170 -0.007797 0.133746 -1.267413 0.030998 -0.385212 -1.078047 -0.446048 0.354826 0.392725 0.496452 -1.898704 0.374053 0.693449
2735 0.387549 0.323600 -0.304826 -0.413269 0.167692 0.122861 -0.068766 -0.369182 -0.072177 -0.208977 0.742255 0.354241 0.257754 0.176241 -0.388279 -0.402684 0.002816 -0.060805 0.284188 -0.056493 0.218284 -0.860899 0.462304 -0.264646 -0.022339 0.272697 0.036047 -0.099862 0.341193 0.401668 0.345436 0.642391 0.587347 0.424641 -0.570403 0.399420 -0.608528 0.354711 -0.197420 -0.632216 0.186353 0.065503 0.379786 0.203726 -0.055167 0.191680 -1.506556 -0.038522 0.046007 0.662668 0.034173 -0.275460 0.303343 -0.410230 -0.106145 0.363841 -0.510545 -0.066048 0.076203 -0.211652 -0.483691 -0.295973 0.479079 0.210613
2825 0.359840 0.182182 0.051847 -0.415087 0.602868 -0.137017 -0.216576 0.111978 -0.168912 0.345707 0.971148 0.181630 0.275106 0.363358 -0.474509 -0.353658 0.365189 -0.632328 0.096483 -0.071789 -0.042249 -0.691586 0.056825 -0.527433 -0.463289 0.406054 0.026854 0.096352 0.321233 0.425958 0.050768 0.399857 0.674248 0.139714 -0.808167 0.327547 -0.469634 0.400401 -0.005181 -0.615965 0.243352 -0.058871 0.547264 0.433221 0.070384 0.214330 -0.923727 0.155987 -0.017399 0.526402 -0.228848 -0.535753 0.261874 -0.393049 -0.113864 0.229263 -0.349453 -0.273204 0.099250 -0.018059 -0.102071 -0.434894 0.561225 0.252254
3291 0.192748 0.296418 -0.156459 -0.790286 0.386766 -0.195623 -0.013582 0.229165 0.317371 -0.099113 0.724923 -0.153072 0.281553 0.545371 -0.202248 -0.521299 0.247629 -0.062717 0.490869 -0.024807 0.380524 -0.705402 -0.133176 -0.730911 -0.206637 0.206734 0.102548 -0.300465 0.211603 0.369891 0.322984 0.668633 0.281615 0.366864 -0.641717 0.262440 -0.163541 0.653763 -0.386370 -0.635964 0.463142 -0.238711 0.903688 0.100567 0.089037 0.113284 -0.909655 -0.237836 -0.363420 0.705946 -0.360919 -0.315011 0.014585 -0.410605 -0.305863 -0.049230 -0.525532 -0.329262 0.548035 0.147746 -0.185027 -0.564667 0.166529 0.326674
3092 0.275621 0.093705 -0.255335 -0.203363 0.583737 0.191465 -0.024653 -0.214521 0.108501 -0.055089 0.740264 0.242736 0.181864 0.327398 -0.146977 -0.822375 0.047542 -0.129540 0.176800 0.150973 0.124837 -0.827148 -0.178561 -0.426596 0.055004 0.404047 -0.009190 -0.287573 0.245318 0.631375 0.186818 0.360863 0.461702 0.521507 -0.624751 0.323712 -0.449104 0.563484 -0.131696 -0.785437 0.059532 -0.269522 0.713868 0.427019 0.287916 -0.145070 -1.014534 -0.290961 -0.330037 0.638233 -0.194208 -0.287945 -0.028561 -0.290028 -0.321558 0.115728 -0.837751 0.235784 0.309134 -0.093666 0.028299 -0.464102 0.383118 0.001115
2861 0.365768 0.422902 -0.199308 -0.226811 0.370039 0.222325 -0.417409 -0.001428 0.179237 0.132216 0.746817 0.099679 0.162322 0.352545 -0.243325 -0.694277 -0.082885 -0.174009 0.449691 0.079516 0.319788 -0.457734 0.085006 -0.521192 0.029374 0.367788 -0.111798 -0.395790 -0.177669 0.616449 0.043089 0.431896 0.339296 0.250642 -0.911350 0.385464 -0.542481 0.468971 -0.113958 -0.559648 0.416324 0.145829 0.684588 0.610454 -0.177036 -0.011367 -1.019601 -0.051998 -0.191568 0.807786 -0.141015 -0.487351 0.034619 -0.473588 -0.189376 0.153465 -0.429796 0.110164 0.470778 -0.051564 -0.262065 -0.370142 0.512590 0.622465
2715 0.282228 0.170912 -0.435947 -0.262708 0.618921 0.079160 -0.048071 -0.379003 -0.190723 0.206005 0.948471 0.169919 0.522836 0.002008 -0.257892 -0.813272 0.320253 -0.555873 0.273674 -0.168346 0.104534 -0.555104 -0.019022 -0.188706 -0.256780 0.356745 0.163600 -0.336700 0.339085 0.529610 0.266048 0.538234 0.780983 0.506177 -0.917519 0.009022 -0.329171 0.467096 -0.194132 -0.849705 0.155296 -0.110355 0.495565 0.116224 -0.003576 0.187733 -1.054513 0.232262 -0.218186 0.484939 -0.217349 -0.047709 0.048814 -0.439876 0.097216 0.349393 -0.153944 -0.192377 0.213199 0.045504 -0.135238 0.191310 0.181408 0.370837
2814 0.372062 0.067434 -0.191789 -0.608683 0.251694 0.216962 -0.171885 -0.046558 -0.048895 0.093441 0.828513 0.167979 0.621918 0.452631 -0.332574 -0.541394 -0.072040 -0.373993 0.450427 0.252977 0.311998 -0.632259 -0.103699 -0.574010 0.177980 0.173083 0.049696 -0.146281 -0.091394 0.645375 0.092664 0.255704 0.450963 0.162053 -0.811370 0.415416 -0.342760 0.596347 -0.248535 -0.505498 0.550526 -0.062322 0.756440 0.370164 -0.168389 0.138434 -1.060019 -0.000688 -0.317712 0.747688 0.002642 -0.127597 -0.009345 -0.474346 -0.117130 0.278343 -0.533607 -0.194148 0.308875 0.172255 0.015658 -0.040232 0.414295 0.078356
2806 0.268694 0.059642 -0.192379 -0.683815 0.388188 -0.110637 0.040612 -0.251283 0.155943 0.369170 0.802625 0.058543 0.418681 0.369903 -0.443487 -0.553763 0.355835 -0.228541 0.158926 0.163462 0.098772 -0.758616 0.033240 -0.546168 -0.221639 0.437121 -0.009185 -0.270389 0.179674 0.768980 0.402634 0.352803 0.379643 0.477399 -0.406530 0.271905 -0.754349 0.628813 -0.013516 -0.539950 0.223860 -0.126950 0.919701 0.289637 0.045648 -0.161633 -0.758028 -0.022058 -0.187002 0.895694 -0.052720 0.016337 0.104312 -0.631169 -0.286812 0.088198 -0.403675 0.077360 0.257952 -0.187130 0.033853 -0.171074 0.094967 0.214614
2702 -0.062970 0.084684 -0.128151 -0.663463 0.425386 0.304446 -0.247243 -0.016338 0.143397 -0.171649 0.553326 -0.019575 0.259473 0.398880 -0.363535 -0.585306 0.095020 -0.134762 0.234379 0.136661 0.022668 -0.497033 0.281375 -0.369369 -0.432850 0.342745 0.010266 0.299906 0.035781 0.540112 0.273683 0.833655 0.316175 0.138217 -0.666240 0.261711 -0.467892 0.730860 -0.346478 -0.911676 0.284781 0.032946 0.787844 0.381167 -0.126001 -0.126921 -1.186192 -0.219651 -0.698909 0.888507 -0.053198 -0.373317 0.106173 -0.509693 -0.012020 -0.085002 -0.594643 -0.125500 0.101126 -0.122219 -0.078799 -0.230888 0.296435 -0.111198
3033 0.399859 0.123048 -0.126766 -0.216520 0.427595 -0.198686 -0.299231 -0.417432 0.036340 -0.105795 1.049694 0.309048 0.258675 0.142043 -0.223110 -0.286560 0.479126 0.067885 0.344281 0.153083 -0.047619 -0.738041 0.014840 -0.340676 -0.072031 0.304949 0.342893 -0.211270 -0.246509 0.607388 -0.110263 0.805718 0.409159 0.115383 -0.549676 0.316894 -0.078928 0.699450 -0.255556 -0.806592 0.248536 -0.116432 0.636792 0.252369 0.221742 0.127947 -1.076252 -0.357636 -0.120171 0.925048 -0.069693 -0.171364 -0.088805 -0.499856 -0.070719 0.304388 -0.467968 -0.264379 -0.094769 -0.097966 0.031831 -0.469847 0.319302 0.340696
3353 0.185583 -0.020837 -0.224741 -0.337919 0.163696 -0.013753 -0.166384 0.314229 -0.029537 0.275559 0.595106 0.305705 0.422280 -0.136465 -0.286632 -0.647962 0.287182 -0.283687 0.422829 0.121485 0.100199 -0.818084 -0.135615 -0.600975 -0.305158 0.284141 0.137594 -0.034708 0.516829 0.887982 0.231669 0.532448 0.629313 0.278324 -0.405958 0.164285 -0.122625 0.776006 0.024453 -0.778948 0.334935 -0.130223 0.580952 -0.064606 0.022546 0.005446 -1.342996 0.035905 -0.280384 0.762240 -0.234001 0.029975 0.153589 -0.280994 -0.196094 0.016404 -0.291588 -0.307716 0.169968 -0.043047 -0.294340 -0.112504 0.347068 0.259935
2872 0.501342 0.229757 -0.181676 -0.276900 0.420661 0.350495 -0.150634 -0.062537 -0.079835 -0.033301 0.643987 0.010449 -0.062634 -0.053171 -0.213359 -0.558751 0.246371 -0.541066 0.152059 0.395533 0.481007 -0.740684 0.026804 -0.715253 -0.120449 0.151824 0.126071 -0.110276 0.202928 0.566590 0.240633 0.550422 0.308908 0.217884 -0.665878 0.260275 -0.426923 0.304729 -0.406957 -0.796797 0.421008 -0.091222 0.617438 0.349068 0.240625 -0.014922 -1.228527 0.001430 -0.310373 0.943333 -0.128783 -0.053945 0.031588 -0.407162 -0.175411 0.080809 -0.374121 -0.067736 0.302188 -0.133118 0.155766 -0.220415 0.106652 0.436192
3701 0.064569 0.019649 0.147016 -0.436292 0.549131 0.260489 -0.056846 -0.363984 -0.134177 -0.200805 0.935906 -0.104058 0.415269 0.192504 -0.122168 -0.623606 0.261759 -0.510323 0.518482 0.428617 0.352871 -0.579201 0.012926 -0.356236 0.001745 0.731845 0.079239 0.143481 0.111638 0.718280 0.087746 0.573712 0.285043 0.542626 -0.678049 0.608356 -0.533373 0.722407 -0.235399 -0.481894 0.116881 -0.151097 0.452926 0.298143 0.206650 -0.107053 -0.859710 -0.047992 -0.483866 0.693252 -0.135400 -0.406926 -0.118119 -0.468623 -0.277457 0.018731 -0.182124 -0.017843 0.507700 0.155218 -0.255585 -0.741600 0.255289 0.126050
40 -0.201109 0.033846 -0.319012 0.229838 -0.142530 0.385175 0.741417 0.398308 -0.176327 0.074335 -0.000543 0.476740 -0.400659 0.004959 -0.063745 0.318813 0.077005 -0.139531 0.378797 -0.079388 -0.608524 0.341305 0.308584 0.208991 0.037025 -0.290208 0.127505 -0.139819 -0.095623 -0.128485 -0.048978 -0.158036 -0.072389 -0.083920 -0.059206 0.107578 0.214670 -0.444019 -0.017188 0.411564 -0.336235 -0.285853 0.029114 -0.166490 -0.018665 -0.012646 0.289767 0.306494 -0.121711 -0.091370 -0.190378 0.024632 -0.129924 -0.081544 0.190389 -0.128169 -0.159441 -0.235836 -0.448289 0.045475 -0.209566 -0.013933 -0.014008 -0.007182
2704 0.450422 0.114998 0.170505 -0.321393 0.512315 -0.038273 -0.262333 -0.171088 -0.136995 0.016250 0.820660 0.441462 0.433969 0.063669 -0.269207 -0.574895 0.227323 -0.530012 0.177924 0.112942 -0.122005 -0.819761 -0.067838 -0.726013 -0.289119 0.249146 0.174409 -0.218030 0.381646 0.551648 0.392913 0.947297 0.602458 0.367263 -0.620113 0.032227 -0.443735 0.468175 -0.394435 -0.340013 -0.105804 0.098528 0.599333 0.506890 -0.047434 -0.009193 -0.931973 0.141919 -0.010229 0.738441 -0.452029 0.002767 0.052804 0.037520 -0.280991 0.455035 -0.391893 -0.138491 0.098661 -0.066666 -0.261228 -0.188255 0.231559 0.121373
2723 0.468513 -0.110240 0.004202 -0.323378 0.506163 0.335937 -0.088754 -0.074391 -0.110478 -0.100162 0.827761 0.238982 0.352813 0.263041 -0.451173 -0.737656 0.358055 -0.210242 0.316756 -0.247081 0.104013 -0.650219 0.133018 -0.486164 -0.382620 0.233162 -0.021248 -0.240884 0.329568 0.760393 0.221156 0.941639 0.387834 0.578344 -0.393940 0.066216 -0.329974 0.407173 -0.258676 -0.564047 0.228389 -0.297688 0.568966 0.571673 -0.030797 0.473317 -1.004360 0.189114 -0.063644 0.622559 -0.397601 -0.250051 0.098760 -0.338463 -0.144404 -0.136491 -0.113908 -0.104930 -0.089299 0.138506 -0.379124 -0.227132 0.428555 -0.025705
2785 0.526087 0.147992 0.033296 -0.345218 0.347439 -0.037504 -0.151243 -0.342197 0.029480 0.243753 0.659114 0.315341 0.385782 0.488412 -0.472002 -0.603221 0.297081 -0.392490 -0.213863 0.188315 -0.080917 -0.516981 0.447090 -0.781123 0.211057 0.259163 0.153859 -0.186517 0.354896 0.582343 0.257746 0.440756 0.364241 0.144624 -0.563755 0.268676 -0.106522 0.439701 0.050433 -0.834727 0.233097 0.062930 0.742150 0.355406 0.173788 0.250744 -1.160687 0.028245 -0.193442 0.554199 -0.045582 -0.506762 0.085463 -0.590288 -0.219138 0.243764 -0.701376 -0.215372 0.452069 0.145333 -0.187970 -0.113927 0.142779 0.204847
3118 0.507937 0.265343 0.210209 -0.470644 0.623278 -0.126751 -0.198800 -0.092187 0.174671 0.101962 0.698267 0.299187 0.564134 0.258968 -0.016228 -0.784973 0.143311 0.129518 0.544482 0.162456 0.168829 -0.530933 -0.088305 -0.255969 0.118400 0.207407 0.087675 -0.089288 0.078158 0.748398 0.206468 0.862906 0.254992 0.476553 -0.565587 0.107243 -0.486182 0.650093 -0.170448 -0.315698 0.162472 -0.001975 0.705169 -0.069671 -0.189378 -0.202560 -1.060472 -0.054129 -0.203051 0.913661 -0.410439 -0.146951 -0.076237 -0.616611 0.291237 -0.076963 -0.535209 -0.354833 0.715518 -0.074719 0.005503 -0.481372 0.322192 0.288954
257 -0.250085 0.181210 -0.431999 0.248173 -0.259844 0.311409 0.623156 0.080943 -0.186865 0.037048 0.104050 0.556469 -0.363175 -0.184760 -0.128049 0.309505 0.161685 -0.355974 0.078457 -0.056368 -0.574918 0.240190 0.384469 0.442302 -0.102992 -0.191487 0.095360 -0.178403 -0.035133 -0.122489 -0.096110 -0.180984 -0.241164 -0.085008 -0.215434 0.165720 0.279278 -0.447714 0.002860 0.406986 -0.227905 -0.299959 -0.105323 -0.015327 -0.127624 0.122793 0.465027 0.301099 -0.102585 0.007750 -0.023790 0.103451 -0.243582 -0.072230 0.104782 0.025657 -0.143865 -0.215038 -0.385261 -0.080958 -0.107976 -0.125005 0.042243 -0.127562
2751 0.196031 0.265288 -0.017093 -0.528726 0.460772 0.047115 0.029914 -0.058447 -0.048390 0.349662 0.581418 0.020909 0.351090 0.363485 -0.332848 -0.645368 0.407274 -0.148099 -0.013086 -0.087717 -0.208659 -0.788575 0.211375 -0.546955 -0.357938 0.366828 0.086643 -0.053137 0.437754 0.493509 -0.046555 0.552386 0.500736 0.121246 -0.731223 0.278148 -0.411686 0.438526 -0.299732 -0.649703 -0.063595 -0.235759 0.651034 0.435858 0.299307 0.171515 -1.198893 0.074346 -0.028173 0.916014 -0.350029 -0.242724 0.221222 -0.314331 -0.149052 0.114451 -0.499040 -0.407313 -0.118521 -0.063335 -0.057994 -0.013822 0.079873 0.276428
272 -0.181958 0.087502 -0.459678 -0.100409 -0.325546 0.161927 0.353140 0.156252 0.116340 -0.097901 -0.292768 0.512029 -0.265393 -0.204516 -0.161118 0.325895 -0.008456 -0.298364 0.315040 -0.024158 -0.392157 0.375560 0.229603 0.365393 0.064719 -0.332895 0.301450 -0.227143 -0.315437 0.072649 0.136771 -0.088638 -0.027097 -0.109350 0.185471 0.338629 -0.034811 -0.558306 0.199584 0.173920 -0.333907 -0.502220 -0.109942 -0.218030 0.034811 -0.101702 0.431798 0.454289 -0.236834 0.204287 -0.373764 0.034198 -0.214143 -0.019621 0.209989 -0.165780 -0.230855 0.026540 -0.156974 0.096954 -0.237058 0.148701 -0.003315 -0.061596
76 -0.006148 0.045878 -0.470516 0.232588 -0.143287 0.518778 0.714458 0.380211 0.037796 0.111580 -0.014728 0.351862 -0.180490 0.075371 -0.076788 0.558710 0.031039 -0.494848 0.087838 -0.012361 -0.557161 0.213616 0.421204 0.356917 0.230554 -0.176252 -0.007619 -0.205938 0.003456 -0.115603 -0.266796 -0.213724 -0.078042 -0.135825 0.101968 0.320520 0.137168 -0.344809 0.149769 0.398130 -0.242023 -0.121183 0.123507 -0.121831 0.010338 -0.075935 0.358903 0.292561 -0.223914 -0.022807 -0.116230 0.071410 -0.257093 0.061086 -0.018898 0.074649 0.043507 0.017967 -0.355910 -0.136523 -0.280666 0.037008 0.026861 0.215416
2721 0.284339 0.272250 -0.021909 -0.310465 0.918936 0.456488 0.039292 -0.077031 0.048235 0.433050 0.659531 0.354361 0.302489 0.179446 -0.570307 -0.627088 0.280683 -0.230089 0.121274 -0.034072 0.161003 -0.762859 -0.112468 -0.437523 -0.100692 0.138655 0.027332 -0.149695 0.386108 0.568181 0.213084 0.543104 0.626687 0.357731 -0.680766 0.191300 -0.550725 0.426349 -0.000593 -0.348380 0.117872 0.005854 0.749694 0.466685 0.112303 0.390184 -1.163175 -0.063407 -0.370329 0.628521 -0.273716 -0.020109 0.072291 -0.441567 -0.143526 -0.026953 -0.138178 -0.112496 -0.126566 0.049245 0.157890 -0.141672 0.462829 0.302261
31 -0.101229 -0.024102 -0.396088 0.182606 -0.254357 0.530242 0.538118 0.164388 -0.019391 -0.078058 -0.027149 0.384914 -0.190602 -0.234429 -0.045723 0.391080 0.152359 -0.452677 0.086557 0.114608 -0.420744 0.192052 0.354489 0.293035 -0.129493 -0.200356 0.244538 -0.295764 -0.079292 -0.086105 -0.098931 -0.273572 -0.151097 0.076062 0.159327 0.227574 0.443548 -0.380552 0.152443 0.385360 -0.289613 -0.240511 0.114013 0.068188 -0.001675 0.086322 0.457633 0.450881 -0.129565 -0.073105 -0.056888 0.173988 -0.227929 0.027614 0.153837 -0.087358 -0.185259 -0.327382 -0.148820 -0.211577 -0.192816 -0.084780 0.005925 0.096908
114 0.187560 0.162321 -0.445782 -0.006756 -0.259654 0.185853 0.275691 0.249816 -0.049761 0.246756 -0.160577 0.347918 -0.199385 0.130808 -0.181767 0.220070 0.077588 -0.376159 0.285864 0.203131 -0.623585 0.220010 0.320982 0.279603 -0.002069 -0.213750 0.317388 -0.195413 -0.125664 -0.134276 -0.056157 -0.121416 0.017475 0.028620 0.230407 0.253993 -0.063790 -0.482900 0.097608 0.496513 -0.224248 -0.501645 -0.079702 -0.308670 0.036622 -0.160325 0.539370 0.330162 -0.191228 -0.097768 -0.094649 0.338179 -0.382940 -0.041924 0.052060 -0.201116 0.025556 -0.079486 0.050934 0.046257 -0.388703 -0.090718 -0.116831 -0.085950
16 -0.176117 -0.104098 -0.652430 -0.062539 -0.290964 0.123585 0.358694 0.331761 -0.142869 0.163936 -0.197536 0.320683 -0.150474 -0.001905 -0.021743 0.385869 -0.137366 -0.546958 0.085967 -0.032959 -0.498864 0.252681 0.325902 0.211700 -0.045936 -0.293952 0.381789 -0.291594 -0.156457 -0.167008 0.029080 -0.032665 -0.061509 -0.000756 0.275120 0.364597 0.039715 -0.530656 0.074093 0.458737 -0.163751 -0.490673 -0.091382 -0.108837 0.124938 0.017916 0.333571 0.169315 -0.167563 0.043188 -0.246260 0.249571 -0.399288 -0.148266 0.395995 -0.125105 -0.050498 0.043236 0.055739 0.054768 -0.371297 0.113344 -0.015032 -0.123802
3262 0.348278 0.419125 0.023505 -0.446224 0.644944 0.109490 0.062361 0.017301 -0.022376 0.103956 0.759240 -0.118428 0.059744 0.046085 -0.379495 -0.810339 0.236525 -0.216813 0.526503 -0.039770 0.282990 -0.223221 0.093704 -0.577606 -0.011260 0.167369 0.112239 -0.077479 0.068045 0.691069 0.134422 0.724433 0.626002 0.201921 -0.809282 0.252813 -0.420031 0.864551 -0.353184 -0.446540 0.356499 -0.256028 0.563275 0.124189 0.004263 0.082552 -0.898172 -0.417779 -0.571290 0.840188 -0.233208 -0.500642 0.056208 -0.216325 -0.080921 0.082649 -0.471119 0.258656 0.268649 0.208148 -0.279981 -0.031225 0.245989 0.186811
2910 0.558446 0.419976 -0.092731 -0.524871 0.672993 0.007966 0.268849 0.078217 0.206466 0.231830 0.859055 -0.062141 0.315335 0.324847 -0.450108 -0.411428 0.214786 -0.131005 -0.096400 0.147759 0.147243 -0.740556 0.015781 -0.549661 0.158439 0.153717 -0.045965 0.065603 0.287289 0.447427 -0.047073 0.669300 0.449757 0.407487 -0.524730 -0.048399 -0.194536 0.555601 -0.212724 -0.419523 0.247409 -0.203399 0.624363 0.422286 -0.091647 0.105900 -1.197071 -0.141459 -0.060187 0.931146 -0.138023 -0.087593 -0.149426 -0.507710 -0.524922 0.183215 -0.442337 0.039803 0.361986 0.020951 -0.183358 -0.692712 0.222583 0.138021
3073 0.322132 0.427125 0.326768 -0.578044 0.223566 0.260880 -0.369251 0.093324 -0.338962 0.327008 0.918045 -0.259446 0.304045 0.528675 -0.180598 -0.758099 -0.058364 0.012620 0.150042 0.033469 0.259946 -0.604169 -0.168609 -0.282524 -0.119364 0.358511 -0.037879 -0.204733 0.413667 0.443177 0.069538 0.584655 -0.187882 0.141697 -0.617682 0.424954 -0.400115 0.921064 -0.063053 -0.249306 0.317156 0.032791 0.660928 0.141088 0.230173 -0.210524 -1.211523 -0.296607 -0.463254 0.989420 -0.223449 -0.232826 -0.419582 -0.634888 -0.030508 0.103970 -0.545643 0.292220 0.718974 0.108406 -0.339043 -0.616345 0.403131 0.268809
842 0.148371 0.081497 -0.811687 0.053623 -0.068895 0.079380 0.286207 0.394034 0.253164 0.038145 -0.231043 0.524159 -0.486591 -0.111912 0.096203 0.576275 0.063051 -0.299664 0.052772 0.263582 -0.406250 0.437234 0.154535 0.146068 -0.099320 -0.038202 0.280591 -0.153228 0.019290 -0.327459 -0.225421 -0.196997 -0.272086 0.220011 0.057844 0.191869 0.258872 -0.136767 -0.108545 0.418673 -0.385884 -0.218942 -0.015039 0.133960 0.074483 0.175871 0.361212 0.379585 -0.211046 -0.044191 -0.430808 0.090737 -0.144913 0.104962 0.066331 0.013528 -0.253417 0.091066 -0.224905 0.008093 -0.253980 -0.028752 -0.051232 -0.099666
2648 0.440010 0.310507 -0.030936 -0.423668 0.211328 0.039714 -0.095965 -0.002403 -0.023424 0.036940 0.639918 0.321879 0.271153 0.304506 -0.221874 -0.558578 0.306037 -0.472936 0.119943 0.029493 0.070318 -0.987675 0.088687 -0.618183 0.083046 0.209341 0.218948 -0.030783 0.293547 0.500944 0.089469 0.636278 0.441076 0.425142 -0.761275 0.352085 -0.405370 0.701062 -0.255366 -0.584210 -0.018443 -0.111758 0.641523 0.546564 0.062951 0.240369 -1.209101 -0.068236 -0.185070 0.519170 -0.172308 -0.005901 0.115473 -0.371388 -0.026247 0.284350 -0.259525 -0.341959 0.192301 -0.033640 -0.352196 -0.120147 -0.024526 0.035659
3127 0.390974 0.088410 -0.071814 -0.239530 0.455200 0.171288 -0.109346 -0.047135 0.122390 -0.155045 0.864854 0.031022 0.264812 0.329694 -0.038603 -0.633827 0.585640 -0.380331 0.169027 0.342837 0.011242 -0.664708 0.163246 -0.462819 -0.173223 0.230910 0.084811 -0.130237 -0.026141 0.728497 0.244698 0.507828 0.514385 0.438135 -0.678085 0.396829 -0.411435 0.567967 -0.167567 -0.291752 0.225422 0.137455 0.724161 0.232906 -0.082656 -0.104514 -1.143946 -0.168461 -0.104889 0.709910 0.076297 -0.334375 0.270231 -0.479957 -0.535915 0.157879 -0.415260 -0.264164 0.289107 -0.173986 -0.175683 -0.518381 0.053251 0.250484
2619 0.163087 0.108737 -0.072866 -0.492673 0.313696 -0.004136 0.002089 -0.066180 -0.188471 0.117129 0.845751 0.283306 0.309480 0.265773 -0.285433 -0.509793 0.110891 -0.178913 0.338305 0.138997 0.160080 -0.447522 -0.168196 -0.452201 0.262805 0.462071 0.185651 -0.225501 0.222825 0.599251 0.346184 0.745405 0.423314 0.383314 -0.484827 0.176442 -0.420096 0.779421 -0.321914 -0.631630 0.295414 -0.189086 0.431103 0.523525 0.192032 0.217388 -1.256796 0.090344 -0.268718 0.750035 -0.074257 0.018668 -0.041460 -0.550298 -0.164740 0.287895 -0.499195 -0.007608 0.272490 0.081797 -0.096124 -0.477959 0.237755 -0.106674
207 -0.044245 -0.111293 -0.539644 -0.012072 -0.072231 0.456417 0.565858 0.339989 0.038638 0.118042 0.030217 0.530121 -0.385830 -0.063362 -0.047142 0.294375 0.037918 -0.365993 0.164407 -0.144243 -0.341614 0.275193 0.419289 0.152777 0.143405 -0.088537 -0.010673 -0.285253 -0.206714 -0.321502 -0.025986 -0.089170 -0.024407 -0.009363 -0.110157 0.086130 0.381861 -0.344536 0.225481 0.476119 -0.413182 -0.241441 -0.073449 -0.149050 0.144277 -0.079142 0.465232 0.188230 -0.201058 -0.001965 -0.014779 0.143988 -0.065810 -0.077044 0.135199 -0.075051 -0.200097 -0.287627 -0.417768 0.043687 -0.178408 -0.010392 -0.154690 0.020839
371 -0.156453 0.149737 -0.451823 0.191862 0.053668 0.559452 0.387797 0.229954 0.096452 0.182955 0.016749 0.540555 -0.215555 -0.227927 -0.052408 0.281666 -0.001090 -0.427562 0.225848 0.142856 -0.425195 0.262808 0.242220 0.352712 0.070741 -0.497224 0.310529 -0.215586 -0.287891 -0.075308 -0.147348 -0.119634 -0.078218 -0.144139 0.010488 0.395650 0.295818 -0.433533 0.106407 0.255421 -0.334810 -0.085197 -0.014760 -0.012855 -0.232758 -0.072031 0.519904 0.365798 -0.183488 -0.064558 -0.124239 0.192661 -0.200048 -0.027011 0.163043 -0.037119 -0.123423 -0.290428 -0.269386 -0.094520 -0.051710 0.097987 -0.023672 -0.094065
23 -0.245146 0.372987 -0.301229 0.001579 -0.183455 0.263792 0.544834 0.401441 -0.226829 -0.026043 -0.039864 0.539120 -0.398992 -0.137391 -0.236915 0.376798 0.158485 -0.334752 0.256547 -0.060082 -0.523835 0.246904 0.225508 0.569082 -0.046555 -0.048567 0.012597 -0.369140 -0.028322 -0.123399 0.013775 -0.136823 -0.283544 0.053293 -0.103591 -0.011375 0.257459 -0.332149 -0.024149 0.415406 -0.304985 -0.306409 0.053834 -0.106667 -0.121043 -0.009127 0.589399 0.234644 -0.328063 0.220353 -0.174148 0.103843 -0.036598 -0.101416 0.223373 -0.432807 -0.049935 -0.091654 -0.326737 -0.041286 0.012511 0.021551 0.175381 -0.042756
2727 0.514718 0.260548 0.053239 -0.241162 0.607027 0.146494 -0.218073 -0.491087 0.224049 0.273777 0.765608 0.299396 0.198069 0.279672 -0.528091 -0.253051 0.261697 -0.408821 0.321292 0.105815 0.233205 -0.739267 -0.172513 -0.450127 -0.025483 0.274232 -0.091016 -0.135207 0.332068 0.738221 0.344850 0.419471 0.348154 0.414966 -0.752995 0.251772 -0.270505 0.376576 -0.547238 -0.693635 0.228860 0.115935 0.487125 0.241581 0.122943 0.085055 -0.920460 0.013585 -0.148387 0.825369 -0.338661 -0.126416 0.158563 -0.552291 -0.072260 -0.015627 -0.355284 -0.339199 -0.040876 -0.071143 -0.307994 -0.316901 -0.022981 0.187540
3111 0.315030 -0.026042 0.065000 -0.406629 0.294988 -0.073554 -0.201511 -0.418146 0.002359 -0.095727 0.936552 0.038814 0.165140 0.352009 -0.031887 -0.520723 0.316053 -0.111584 0.271814 0.472452 0.434697 -0.373334 0.127454 -0.386321 -0.089441 0.189909 0.180729 -0.362266 0.494819 0.651418 0.242387 0.876445 0.299637 0.225633 -0.601435 0.307612 -0.425463 0.630830 -0.334069 -0.306332 0.280185 -0.096473 0.536906 0.297572 -0.009817 -0.233718 -1.085334 -0.151303 -0.238114 1.113558 -0.392178 -0.298766 -0.098299 -0.540407 -0.049981 0.038500 -0.342829 0.104460 0.508415 0.161389 -0.021697 -0.379254 0.279739 0.188842
27 -0.110298 0.100177 -0.458266 0.175582 -0.217313 0.319004 0.704536 0.280272 -0.004905 -0.002722 -0.031877 0.494037 -0.310978 -0.148962 -0.145464 0.236311 0.096944 -0.268930 0.227436 -0.128406 -0.479564 0.339181 0.550462 0.154312 0.152736 -0.424263 0.135136 -0.409684 -0.013542 -0.193656 -0.070403 -0.077112 -0.239369 -0.050438 -0.054547 0.034069 0.268916 -0.447541 -0.100383 0.052475 -0.388878 -0.101435 -0.237006 -0.208207 0.152600 -0.236722 0.341946 0.311936 -0.279889 -0.180048 -0.211067 -0.037434 0.020148 -0.028578 0.193064 -0.135584 -0.230535 -0.250763 -0.408365 -0.069293 -0.322595 0.113375 0.110866 0.023451
2800 0.134751 0.090779 -0.032926 -0.610367 0.431491 0.082372 -0.114003 0.007306 0.087327 0.373052 0.808438 -0.031152 0.284839 0.452701 -0.571012 -0.502030 0.067988 -0.165123 0.144181 0.241598 -0.025462 -0.864288 0.281493 -0.641379 -0.184675 0.023672 0.082136 -0.277211 -0.035563 0.715987 0.355956 0.622991 0.401198 0.365820 -0.911861 0.162989 -0.332267 0.518097 -0.307399 -0.545928 0.315402 -0.038624 0.338380 0.532581 0.277204 0.079481 -1.076456 -0.051298 0.096162 0.703484 0.015027 -0.219822 0.087337 -0.469466 -0.104126 -0.217163 -0.213835 -0.347872 0.078245 -0.090415 -0.463870 -0.352016 0.044797 0.118616
145 -0.197696 0.102132 -0.415780 0.152120 -0.150423 0.208588 0.679471 0.100281 0.007436 -0.065615 -0.036252 0.584580 -0.327485 -0.051067 -0.124011 0.327891 0.167330 -0.231934 0.219762 0.076730 -0.368196 0.206334 0.528952 0.098790 0.225257 -0.229630 0.139184 -0.431133 -0.140362 -0.182141 0.073686 -0.149368 -0.225692 -0.030711 -0.099835 0.141771 0.191927 -0.256484 0.014626 0.477854 -0.177067 -0.371815 -0.140292 -0.233313 -0.163890 -0.064832 0.530956 0.535634 -0.176739 -0.053156 -0.208854 -0.106447 -0.124222 0.000956 0.051037 -0.091655 -0.129267 -0.302762 -0.281249 -0.122526 -0.119711 -0.009270 -0.075695 -0.064330
462 -0.347167 0.132536 -0.529403 0.198830 -0.028716 0.396288 0.585343 0.198080 0.202641 0.232071 0.096314 0.628519 -0.173632 -0.302060 -0.065449 0.182115 0.087117 -0.495561 0.016618 0.160143 -0.484040 0.284395 0.402427 0.306196 -0.015448 -0.262459 0.095236 -0.209854 -0.170216 -0.053055 -0.024712 -0.172241 -0.054953 -0.138655 -0.009676 0.154121 0.260620 -0.248977 0.286761 0.601501 -0.368272 -0.211982 -0.078398 0.075153 -0.001662 -0.092870 0.368376 0.203544 -0.149751 -0.198267 -0.124002 0.124807 -0.128498 0.023964 0.205707 -0.145160 0.028819 -0.105623 -0.370053 -0.108772 -0.131648 -0.012571 0.139739 0.011059
2728 0.448574 0.373569 -0.185434 -0.384044 0.205418 -0.000314 -0.179824 -0.196308 -0.047544 0.278110 0.682294 0.196886 0.348047 0.268297 -0.520722 -0.736255 0.024940 -0.311739 0.404341 0.218792 0.374660 -0.584793 -0.013061 -0.345551 -0.226505 0.317138 0.245050 -0.127495 0.094558 0.664408 0.288985 0.377298 0.559483 0.424188 -0.676671 0.147554 -0.093347 0.301178 -0.164993 -0.598529 0.464547 -0.210906 0.780789 0.112688 -0.019478 0.136503 -1.201020 -0.050797 -0.322661 0.713200 0.071491 -0.410038 -0.015083 -0.432299 -0.215514 0.264766 -0.357616 -0.368742 0.257023 0.062384 -0.228538 -0.361306 -0.095937 0.210652
3062 0.143200 0.239442 -0.140794 -0.376131 0.406743 0.076060 -0.252531 -0.367878 0.149707 0.429004 0.668608 0.358694 0.111599 0.122641 -0.457712 -0.608958 0.468718 -0.317387 0.328323 -0.004443 0.311361 -0.531123 0.013353 -0.671246 -0.282910 -0.053032 0.055460 -0.049340 -0.040141 0.629811 0.155257 0.453440 0.538715 0.187652 -0.840017 0.433033 -0.454457 0.639345 -0.243045 -0.643629 0.009052 -0.164087 0.618499 0.406140 0.008762 0.325898 -1.128954 -0.145044 -0.183562 0.720916 -0.179168 -0.340129 0.105163 -0.466486 -0.208181 0.018271 -0.090402 -0.104172 -0.026376 -0.065740 -0.286732 -0.345256 0.348614 0.167668
160 -0.011982 0.070094 -0.507834 0.067440 0.023646 0.531310 0.491235 0.323167 -0.049662 -0.083943 0.061481 0.469159 -0.290236 -0.285456 -0.072972 0.471479 0.084199 -0.252807 0.317316 -0.164132 -0.399647 0.259662 0.357959 0.086363 0.154696 -0.258373 0.226616 -0.286779 -0.144222 -0.180354 -0.147190 -0.242259 -0.230544 -0.026750 0.128167 0.161512 0.426577 -0.418686 0.253758 0.191284 -0.290951 -0.221471 0.029918 -0.139523 -0.046720 -0.119414 0.465580 0.384239 -0.094541 0.043687 -0.103929 0.106254 -0.196804 -0.025369 0.343911 0.165722 -0.348266 -0.110081 -0.122265 -0.170951 -0.287391 0.063654 0.069416 -0.052669
213 -0.184648 0.125262 -0.713168 -0.047696 -0.256349 0.214744 0.157888 0.169597 -0.101756 0.100337 -0.104266 0.357537 -0.263313 0.017259 -0.071161 0.379393 -0.041486 -0.421197 0.156282 0.049772 -0.538982 0.277036 0.280206 0.130680 -0.131672 -0.372757 0.356437 -0.042938 -0.215527 -0.201217 -0.036685 -0.162224 0.075748 0.083336 0.300398 0.276354 0.102842 -0.414996 0.160627 0.363378 -0.252014 -0.499377 -0.042046 -0.360274 0.304858 -0.038816 0.433915 0.250008 -0.097398 0.005013 -0.204404 -0.015875 -0.428676 -0.088257 0.179824 -0.267867 -0.068962 -0.103457 -0.090690 -0.102042 -0.252017 -0.034424 -0.039498 0.135185
73 -0.218147 0.292411 -0.298342 -0.269362 -0.029682 0.422759 0.677479 0.484334 -0.066260 0.024961 -0.117748 0.274189 -0.602041 0.098898 0.200805 0.297851 -0.066047 -0.190036 0.247299 0.170249 -0.413267 0.344329 0.652156 0.224833 0.171451 -0.235209 -0.015950 -0.071783 -0.285011 -0.115470 0.154347 -0.168130 -0.174512 -0.228570 0.038483 0.130990 0.371414 -0.307963 0.241895 0.199662 -0.139931 -0.299192 -0.194617 -0.330981 -0.189892 -0.333360 0.366535 0.176932 -0.483967 -0.059429 0.092484 0.043004 -0.120787 -0.250581 0.015038 -0.007597 -0.309884 0.007786 -0.138947 -0.108711 -0.025131 -0.179616 0.126572 0.172686
4 -0.145301 0.043150 -0.352274 -0.122523 0.023913 0.366315 0.388058 0.316889 -0.030430 -0.000404 0.069579 0.189879 -0.172147 -0.314247 0.097418 0.452536 0.221644 -0.402230 0.084599 0.061153 -0.684481 0.285545 0.422937 0.350549 0.025055 -0.262877 0.247201 -0.033849 -0.151369 -0.076186 0.046994 -0.361548 -0.164348 -0.063799 0.314315 0.188527 0.257386 -0.256603 0.356371 0.578295 -0.547671 -0.348821 0.191750 -0.278168 0.089474 0.064761 0.352158 0.386611 -0.383623 0.145596 -0.015851 0.120818 0.200654 -0.086728 -0.047871 -0.110742 -0.391854 -0.225192 -0.293795 -0.347169 -0.240277 0.190443 -0.036001 -0.139054
3355 0.335883 0.131143 -0.262174 -0.481001 0.422686 0.119770 -0.441637 -0.047823 -0.112950 0.201470 0.516663 0.141945 0.286926 0.144046 -0.637405 -0.470190 0.154403 -0.154913 0.279586 -0.203609 0.232594 -0.949745 -0.002140 -0.379830 -0.119913 0.221186 0.112404 -0.091737 0.340972 0.616849 0.337469 0.395514 0.563283 0.149669 -0.552102 0.402250 -0.155939 0.213201 -0.446233 -0.598794 0.064798 -0.140689 0.550545 0.599131 0.174574 0.299830 -1.199777 0.107153 -0.003617 0.814621 -0.152986 -0.298502 -0.000752 -0.440352 -0.210232 0.293829 -0.304363 -0.171529 -0.243770 0.125003 -0.390609 -0.282066 0.450178 0.278871
2889 0.480004 0.643138 -0.068064 -0.617686 0.442916 0.258264 -0.279377 -0.350958 0.133869 0.219425 0.674011 -0.180686 0.348959 0.196508 -0.336442 -0.378209 0.275873 -0.283795 0.364487 0.039282 0.269179 -0.740807 0.143748 -0.350655 -0.106603 0.064010 -0.191359 -0.188279 -0.086755 0.674425 0.449859 0.589376 0.634399 0.362918 -0.665405 0.272076 -0.103185 0.624113 -0.022869 -0.330527 0.327103 -0.047036 0.782502 0.308362 -0.060355 0.180247 -1.056048 -0.165993 -0.486019 0.498070 0.129374 -0.218357 0.042051 -0.384026 -0.342552 0.025208 -0.600377 -0.050685 0.541264 0.467113 -0.338285 -0.259800 0.204641 0.346770
3007 0.272243 0.196827 -0.224130 -0.228781 0.569295 0.100434 -0.095284 -0.228841 -0.259936 -0.122240 0.785802 0.298079 0.374325 0.424543 -0.388116 -0.630841 0.508207 -0.209140 -0.063542 0.081875 0.178363 -1.187205 0.098371 -0.385635 -0.073528 0.348470 0.176264 0.005137 0.314587 0.314669 0.273961 0.444414 0.579413 0.270096 -0.717648 0.316445 -0.332192 0.267832 -0.019460 -0.602902 0.244346 -0.065189 0.514974 0.300451 -0.042721 0.508598 -0.972666 0.112244 0.055306 0.859400 -0.175461 -0.264445 -0.065374 -0.436648 -0.163953 0.013768 -0.562039 -0.216675 -0.014681 0.083588 -0.228007 -0.063265 0.277545 0.041867
2626 0.280319 0.154865 -0.161042 -0.390306 0.395765 0.220419 -0.273619 -0.045529 0.195457 0.216595 0.737179 -0.101814 0.232328 0.274370 -0.098919 -0.596902 0.106888 -0.222823 0.106000 -0.078750 0.439049 -0.482913 0.088540 -0.264942 -0.147509 0.280070 0.049464 -0.233282 0.113352 0.589191 0.338821 0.711072 0.202311 0.256465 -0.672418 0.387087 -0.376926 0.385445 -0.264436 -0.642004 0.409804 -0.095867 0.716964 0.274973 -0.207923 -0.002915 -1.300044 0.152378 -0.379156 1.172730 0.182691 -0.296921 0.077879 -0.222938 -0.141383 0.212209 -0.500602 0.103729 0.479145 0.456765 0.045773 -0.510465 -0.233091 0.551373
3276 0.666590 0.081874 -0.066763 -0.169663 0.310262 0.350231 -0.111167 -0.281562 0.028742 0.186610 0.638136 0.258567 0.499073 0.271069 -0.202012 -0.678881 0.243048 -0.551530 0.144662 -0.234439 0.311111 -0.791032 0.200945 -0.447022 -0.356783 0.262893 0.313148 -0.194306 0.082625 0.696461 0.250266 0.536017 0.335412 0.177016 -0.919848 0.102227 -0.457387 0.442715 -0.138461 -0.370359 0.208850 -0.074338 0.537466 0.234256 0.519308 0.356683 -0.945096 -0.050843 -0.068906 0.809112 -0.369187 -0.251734 0.290297 -0.454111 -0.149563 0.215713 -0.244467 -0.414239 -0.017274 -0.186450 -0.196430 0.032999 0.379828 0.190398
2769 0.146419 0.316227 -0.148981 -0.323698 0.405884 0.276552 -0.235125 -0.243066 0.090703 0.211672 0.590498 0.107686 0.461508 0.566719 -0.373489 -0.621733 0.117978 -0.370736 0.316501 0.083309 -0.026643 -0.711014 0.119453 -0.465796 -0.139754 0.106707 0.302894 -0.148148 0.252360 0.476992 0.041330 0.636892 0.740905 0.312345 -0.613731 0.052916 -0.502946 0.485660 -0.030515 -0.739277 -0.069418 0.085901 0.815648 0.174103 0.076412 0.097728 -1.185213 -0.074879 -0.122289 0.684542 -0.271448 -0.286120 0.030665 -0.364805 -0.071699 -0.066435 -0.331430 -0.212410 0.103113 0.132121 -0.211579 -0.198184 0.163977 0.181954
2672 0.376110 -0.019293 0.056394 -0.351923 0.863830 0.141774 -0.273044 -0.052446 -0.080167 0.237004 0.352537 0.428766 0.377147 0.640141 -0.333393 -0.220425 0.036717 -0.256137 0.356306 -0.062602 0.000352 -0.741697 0.206308 -0.533774 0.087079 0.422127 -0.073671 -0.388455 0.151969 0.363951 0.185435 0.603973 0.348839 0.301202 -0.773853 0.199265 -0.282852 0.700918 -0.225995 -0.522631 0.094397 -0.328859 0.845753 0.423989 0.126166 0.221395 -1.313211 -0.066991 -0.119904 0.713327 -0.064940 -0.112527 0.192226 -0.599414 -0.209065 0.158675 -0.252012 -0.289205 0.092373 -0.189267 -0.203862 -0.176811 -0.077068 0.150418
376 -0.072481 -0.027195 -0.382108 0.078903 -0.170201 0.408353 0.824488 0.281637 -0.035663 0.242959 -0.093711 0.465791 -0.526228 -0.016861 -0.055832 0.171756 0.171382 -0.261303 0.041989 -0.171183 -0.492031 0.320629 0.489929 0.193437 0.184941 -0.386191 0.089788 -0.173710 -0.057207 -0.153566 0.117625 -0.213920 -0.052672 -0.100034 -0.126081 0.107442 0.358777 -0.411901 -0.159938 0.294039 -0.300860 -0.317106 -0.163790 -0.090013 0.033932 -0.151628 0.253666 0.364034 -0.133932 -0.206156 -0.155970 -0.063808 -0.195934 0.143882 0.225497 -0.068729 -0.220864 -0.138929 -0.423896 0.112026 -0.199178 0.022242 0.140237 -0.005650
83 -0.214090 0.106372 -0.481275 0.177808 -0.020198 0.400542 0.503073 0.113898 -0.003340 -0.026187 0.038607 0.573514 -0.032594 -0.217658 -0.076632 0.437051 0.100127 -0.360998 0.208122 -0.049224 -0.497894 0.344239 0.379270 0.068658 0.154371 -0.290829 0.151896 -0.107894 -0.036189 -0.194163 -0.032701 -0.186432 -0.204620 0.015294 0.048560 0.054414 0.366460 -0.509536 0.154860 0.342350 -0.270956 -0.400584 0.147717 -0.151160 -0.194771 0.072492 0.575904 0.287719 -0.245407 0.054287 -0.021198 0.048370 -0.146240 0.069774 0.149362 -0.051800 -0.202993 -0.271133 -0.167136 -0.152750 -0.207900 -0.038427 0.086147 -0.054014
512 -0.119293 0.198393 -0.597003 0.014289 -0.236373 0.066898 0.251926 0.152688 -0.074906 0.041223 -0.162097 0.391884 -0.234390 -0.193611 0.018535 0.186765 -0.100052 -0.378799 0.109038 -0.133395 -0.727253 0.228494 0.367408 0.096707 -0.088008 -0.362550 0.310392 -0.039792 -0.290825 -0.103863 0.065425 -0.240082 -0.015856 -0.131536 0.303751 0.194677 0.205894 -0.309345 0.242703 0.314835 -0.281497 -0.569959 0.090776 0.081862 0.270597 -0.071549 0.485448 0.402542 -0.295750 -0.012988 -0.358144 0.196311 -0.333802 0.010399 0.128423 -0.240964 -0.146300 -0.031269 0.086962 0.108423 -0.198277 0.151703 -0.100904 0.060744
209 0.093859 0.053852 -0.399314 -0.326019 -0.310594 -0.034643 0.389099 0.206511 0.126744 0.160463 0.057610 0.495554 -0.099653 -0.068750 0.086843 0.584194 -0.150176 -0.534893 0.210688 -0.048949 -0.503176 0.105017 0.394251 0.215536 0.015720 -0.517539 0.149939 -0.241505 -0.166015 -0.060875 -0.103240 0.019593 -0.191776 0.156175 0.410266 0.197511 -0.029429 -0.574629 0.003204 0.237154 -0.215012 -0.335321 -0.020483 -0.146931 0.076992 -0.188370 0.488382 0.218069 -0.251779 -0.084180 -0.262335 0.515793 -0.309174 0.171848 0.225376 -0.226636 -0.146778 -0.084966 -0.010129 0.142758 -0.377598 -0.092800 0.084031 -0.161828
143 -0.101364 0.157627 -0.435055 0.166632 -0.018337 0.457846 0.569255 0.391717 0.068103 0.065753 0.027724 0.109580 -0.290182 -0.343495 0.210012 0.492129 0.225015 -0.286811 -0.012195 0.056862 -0.538996 0.335734 0.418036 0.414998 0.235207 -0.373143 0.183855 -0.321333 -0.002975 -0.093288 -0.107958 -0.085021 -0.099047 -0.121961 -0.084480 0.444938 0.208489 -0.577594 0.196347 0.251069 -0.372207 -0.264784 0.117205 -0.061765 -0.049321 0.021904 0.267902 0.420696 -0.231977 -0.037569 -0.106611 0.164595 -0.046659 -0.024485 -0.108607 -0.225454 0.026233 -0.061558 -0.278121 -0.091257 -0.140176 0.028829 -0.059129 -0.056309
2778 0.545796 0.274716 -0.288818 -0.462245 0.381865 0.070419 -0.232769 0.019568 0.153019 0.186949 0.908499 0.212449 0.592059 0.099087 -0.353588 -0.498530 0.123783 -0.381641 0.426726 0.291893 0.181583 -0.805834 0.036976 -0.402610 -0.024282 0.199785 0.161572 -0.012412 0.137637 0.646344 0.323519 0.318233 0.597306 0.153694 -0.763631 0.362416 -0.405009 0.466792 -0.336945 -0.498143 0.420024 -0.163937 0.611098 0.650530 0.067374 0.195539 -0.868273 -0.047720 0.025355 0.774933 -0.223651 -0.153342 0.034556 -0.356209 -0.074765 0.516541 -0.232458 -0.265846 0.210987 0.110935 0.115005 -0.312886 0.227139 0.252623
57 -0.098149 0.071071 -0.477615 0.020782 -0.440746 0.191959 0.335003 0.216058 0.009337 -0.047481 -0.238143 0.508254 -0.329204 0.048354 0.022879 0.321760 0.069778 -0.265651 -0.001984 -0.017496 -0.549323 0.147073 0.334535 0.127132 0.037012 -0.586372 0.301924 -0.180105 -0.257280 -0.338980 -0.088842 -0.162878 -0.037189 0.078321 0.091707 0.391829 0.124865 -0.332277 0.306182 0.329219 -0.281676 -0.338226 -0.063898 -0.008395 0.233764 -0.030396 0.284290 0.276352 -0.204644 0.148332 -0.348666 0.138654 -0.371763 0.067453 0.183696 -0.280759 -0.060900 -0.121538 0.110939 0.101303 -0.274619 0.232001 0.002350 -0.096487
100 -0.201122 0.129046 -0.465327 0.202178 -0.121937 0.366369 0.584513 0.154477 0.028959 0.203181 0.091383 0.439088 -0.185495 -0.272527 -0.243768 0.245604 0.281866 -0.354254 0.053962 -0.084299 -0.554662 0.288491 0.456908 0.285897 -0.018160 -0.274081 0.163400 -0.170918 0.088383 -0.275196 -0.068744 -0.208213 -0.272396 0.048428 0.104946 0.011898 0.250345 -0.338355 0.059865 0.589577 -0.113198 -0.381969 0.021474 -0.181973 0.001839 -0.016497 0.352843 0.349711 -0.227856 -0.067438 -0.058167 0.163488 -0.159112 0.006744 0.163938 0.040167 -0.006093 -0.156162 -0.168485 -0.164484 -0.116993 -0.152236 0.055340 0.092057
2665 0.418874 0.375281 -0.077197 -0.564545 0.390522 0.269912 -0.143548 -0.222806 -0.189772 0.124687 0.615928 0.476644 0.099671 0.110751 -0.369624 -0.593217 0.303951 -0.260748 0.090908 -0.149405 0.253566 -0.781568 0.066515 -0.509381 -0.178607 0.225409 0.045587 -0.243878 0.155941 0.526257 0.176577 0.291665 0.714670 0.125732 -0.725096 0.315289 -0.531478 0.349988 -0.166351 -0.582221 -0.094734 -0.033566 0.476243 0.555536 0.019746 0.171590 -1.084383 -0.133978 0.000758 0.859201 0.044770 -0.145302 0.018878 -0.635237 0.039762 0.612488 -0.381969 -0.576243 0.360808 -0.275557 -0.177908 -0.324152 0.359807 -0.075329
84 -0.062869 0.107650 -0.434782 -0.081938 -0.105263 0.113341 0.365936 0.106854 -0.072320 -0.096965 -0.232163 0.460346 -0.190277 -0.002659 0.098429 0.329709 0.033710 -0.288818 0.205324 -0.047843 -0.576943 0.400977 0.466151 0.199013 -0.051387 -0.444484 0.488131 -0.242338 -0.270221 -0.354150 0.096187 -0.084808 0.077042 0.038640 0.231849 0.316331 0.143848 -0.300826 0.283943 0.169609 -0.370953 -0.313840 0.092137 -0.191243 0.218741 0.081075 0.373606 0.349667 -0.295208 -0.125754 -0.076524 0.251667 -0.339704 0.120209 0.125975 -0.357668 -0.099502 -0.106794 0.220331 -0.039587 -0.351676 0.062083 0.053344 -0.105685
2902 0.557017 0.175875 0.095045 -0.026900 0.418384 0.066510 0.002007 -0.055150 -0.220464 0.360920 0.685265 -0.085191 0.334125 0.109043 -0.133282 -0.450175 0.196131 -0.408719 0.388303 -0.014640 0.128460 -0.773300 -0.095568 -0.526228 -0.341472 0.127554 0.450485 -0.009138 0.371905 0.380065 0.445485 0.569222 0.670062 0.308825 -0.602438 0.026931 -0.599959 0.587221 -0.140207 -0.467092 0.225465 0.075026 0.456749 0.637642 -0.026401 0.186069 -0.985631 0.171149 -0.284260 0.848688 -0.093908 -0.201071 0.109865 -0.667244 0.031585 0.135271 -0.465293 -0.392356 0.010904 0.177183 -0.493718 -0.194083 0.387367 -0.015306
168 -0.261391 0.111148 -0.662784 0.082164 -0.251236 0.427104 0.380215 0.228315 -0.165291 -0.004922 0.018892 0.463916 -0.142395 -0.107590 0.118094 0.401696 -0.012781 -0.411198 0.107758 -0.032987 -0.456761 0.407605 0.332734 0.114932 0.255231 -0.186372 0.098210 -0.229171 -0.026105 -0.382112 0.002667 -0.099682 0.042395 -0.031265 -0.157028 0.062528 0.415609 -0.469414 0.240778 0.297892 -0.260120 -0.240713 0.088652 0.076693 -0.127510 -0.111041 0.340141 0.381905 -0.230479 0.038639 0.047208 0.152152 -0.271501 0.129625 0.176978 -0.097122 -0.246048 -0.129040 -0.503502 -0.203651 -0.187329 0.117213 -0.101240 0.153061
2919 0.346487 0.348376 0.070557 -0.502997 0.130497 -0.026093 -0.173935 -0.233595 0.181290 0.397138 0.883852 -0.038361 0.400746 0.192849 -0.097460 -0.611966 0.327841 0.019182 0.306909 0.119843 -0.027270 -0.569485 0.040082 -0.223756 0.069862 0.444910 0.089386 0.051362 0.258685 0.611351 0.299341 0.579772 0.319345 0.218702 -0.986662 -0.049499 -0.410228 0.399456 -0.226725 -0.484117 0.545067 -0.260302 0.695633 0.126344 0.014216 -0.120482 -1.068628 -0.286765 -0.569888 0.768678 -0.048325 -0.180397 0.090888 -0.625357 -0.126498 0.057893 -0.428061 0.248553 0.628249 0.383569 -0.136764 -0.269510 0.355169 0.325084
2701 0.291631 0.214473 -0.032634 -0.418924 0.382180 -0.083081 -0.082721 -0.201264 0.141265 0.032917 1.026735 -0.043998 0.143834 0.248299 -0.093318 -0.757183 0.344763 -0.022306 0.491544 0.216317 -0.087167 -0.537355 -0.012402 -0.343655 -0.161456 0.238406 -0.157136 -0.101031 0.219836 0.649293 0.232378 0.523103 0.303775 0.225142 -0.640032 0.133639 -0.523302 0.460197 -0.098311 -0.485004 0.436531 -0.177248 0.605482 0.380015 0.151829 0.251614 -1.028421 -0.330713 -0.497619 1.114088 -0.130479 -0.296629 -0.259196 -0.241563 -0.201817 0.174334 -0.326606 -0.130657 0.431405 -0.110161 -0.180276 -0.331857 0.388754 0.229272
2880 0.340244 0.226930 -0.330998 -0.447280 0.419019 0.031866 -0.010500 -0.246982 -0.163814 -0.070162 1.022610 -0.060109 -0.019716 0.227728 -0.306373 -0.579475 -0.068821 -0.263266 0.333676 0.056157 -0.146644 -0.650668 0.065231 -0.568743 0.002881 0.204893 0.168818 0.017995 0.301613 0.622350 0.192104 0.595701 0.428297 0.282289 -0.754699 -0.005669 -0.581427 0.694716 -0.174358 -0.605591 0.084820 0.116390 0.764435 0.411955 0.198284 0.456333 -0.983327 -0.005593 -0.163726 0.657917 -0.228610 0.007715 0.190711 -0.501179 -0.108772 0.010487 -0.304066 0.015141 0.453507 -0.164588 -0.111524 -0.438769 0.180879 -0.049937
2869 0.481326 0.276744 -0.197506 -0.490892 0.465624 0.190881 -0.279469 -0.177471 -0.048581 -0.054414 0.728847 -0.129888 0.460122 0.157712 -0.393174 -0.445554 0.317965 -0.394798 0.443455 0.060542 0.036060 -0.281221 -0.030739 -0.505743 0.024756 0.375084 -0.107648 -0.127841 0.292566 0.735508 0.089599 0.400066 0.503193 0.337278 -0.740532 0.336567 -0.345148 0.531564 -0.064093 -0.580105 0.410677 -0.205283 0.728268 0.198826 -0.102794 -0.057563 -1.272008 -0.181699 -0.097015 0.778553 -0.150344 -0.256677 -0.024232 -0.115087 0.030572 0.243477 -0.543389 0.149412 0.283861 -0.251531 -0.478926 -0.420159 0.045154 -0.132971
89 -0.215031 0.021263 -0.119360 0.234949 -0.131053 0.445235 0.491296 0.327477 0.080403 0.125167 0.157196 0.421011 -0.414575 -0.387184 -0.027687 0.277368 0.080748 -0.322476 0.242453 -0.071582 -0.499594 0.299556 0.462075 0.257777 -0.008437 -0.532113 0.265783 -0.171241 -0.018951 -0.118143 -0.122674 -0.156044 -0.003741 -0.156168 0.091516 0.158412 0.312781 -0.374511 0.002114 0.403045 -0.277156 -0.236554 0.089133 -0.040768 -0.078728 0.196810 0.458270 0.345126 -0.280282 0.040981 -0.070878 0.219733 -0.081577 -0.107021 0.170140 -0.063696 -0.162088 -0.125472 -0.368752 -0.171006 -0.288034 0.011819 -0.054405 -0.115805
2667 0.507293 0.254590 -0.084787 -0.220013 0.525896 0.549155 -0.026385 -0.247555 -0.045709 0.003349 0.953849 0.128833 0.274030 0.068629 -0.529598 -0.908948 -0.041835 -0.529334 0.203948 -0.002203 -0.170862 -0.738432 -0.070516 -0.471920 -0.300235 0.127714 0.195475 0.014736 0.228579 0.485544 0.140721 0.442902 0.713718 0.269345 -0.614620 -0.094796 -0.333675 0.384594 -0.281760 -0.637024 0.111314 -0.107262 0.463938 0.296293 0.040891 0.140781 -1.212271 0.046005 0.030534 0.561045 -0.085516 -0.339031 0.085752 -0.338464 -0.137593 0.078519 -0.446486 -0.335214 0.090063 0.082955 -0.287281 -0.016014 0.328819 -0.023228
305 -0.045773 -0.090820 -0.351772 -0.062079 -0.361293 0.312473 0.252508 0.140019 -0.183358 0.028228 0.028869 0.353186 -0.082813 0.071719 0.130688 0.481389 -0.116679 -0.455562 0.249224 0.097010 -0.842939 0.419085 0.227549 0.242598 0.039276 -0.244956 0.292778 -0.060103 -0.287373 0.177136 -0.054801 -0.112679 -0.010233 0.073281 0.262934 0.067179 -0.031964 -0.495352 -0.057735 0.453106 -0.183959 -0.424563 0.016688 -0.298678 0.051183 -0.158141 0.410841 0.419357 -0.169086 -0.005507 -0.168710 0.308116 -0.414164 -0.034405 0.232424 -0.201556 -0.145629 0.040737 -0.007944 0.228812 -0.252761 -0.143475 -0.031365 0.026973
3372 0.463341 0.254363 -0.177003 -0.247344 0.427259 0.087722 -0.094442 -0.249129 -0.168276 0.355676 0.527095 -0.189767 0.519358 0.373355 -0.400646 -0.679094 0.380929 -0.104898 0.483474 -0.162402 -0.127766 -0.565283 -0.005064 -0.386277 0.038160 0.520215 -0.000659 -0.165093 0.149182 0.598787 0.149019 0.634101 0.174672 0.228634 -0.710637 0.156929 -0.251735 0.480665 -0.304816 -0.451436 0.427893 -0.155334 0.807383 0.399016 0.049918 0.208837 -0.853494 -0.289330 -0.343214 0.767916 0.024366 -0.374220 0.122370 -0.612940 -0.238422 -0.002966 -0.626220 0.007129 0.429195 0.271938 -0.246780 -0.481433 0.359831 0.199034
309 -0.284172 0.090197 -0.433160 0.052105 -0.092079 0.540581 0.345474 0.280262 0.010298 -0.061251 0.219369 0.307759 -0.257777 -0.123589 -0.063368 0.549553 0.261405 -0.249462 0.287280 -0.040127 -0.608176 0.517121 0.119587 0.132435 0.182868 -0.328243 0.334384 -0.151124 -0.143790 -0.353871 0.000873 0.012168 -0.167662 0.266290 0.165794 -0.035425 0.218698 -0.503928 0.159603 0.229318 -0.236256 -0.182515 0.196574 0.108786 -0.006338 -0.016206 0.631747 0.433154 -0.199205 0.209172 0.040707 0.084076 -0.160646 -0.011339 0.252951 0.020155 -0.279543 -0.071372 -0.371734 -0.216126 -0.120283 0.103994 0.081755 -0.107524
349 -0.205784 0.213156 -0.349439 0.364287 -0.127128 0.415434 0.584440 0.394374 -0.083743 0.115278 -0.222830 0.383040 -0.296203 -0.078041 0.047039 0.249681 0.058519 -0.461637 0.163959 -0.175637 -0.474196 0.263133 0.553223 0.196394 0.040446 -0.222450 -0.041730 -0.351176 -0.114880 -0.187360 -0.119555 -0.009390 -0.148668 -0.057391 -0.051111 0.233101 0.235033 -0.327324 -0.002445 0.239310 -0.246474 -0.277912 -0.026564 -0.341486 0.008149 -0.165083 0.356718 0.377257 -0.375174 -0.075386 -0.085583 0.055981 -0.262584 0.013922 0.007876 -0.014521 -0.242526 -0.138302 -0.375263 -0.054488 -0.199181 0.210168 0.073685 0.021178
456 -0.019512 0.044411 -0.365144 -0.051123 -0.207188 0.279889 0.397881 0.049828 -0.051499 0.061666 -0.280102 0.335340 -0.228996 -0.060277 -0.287639 0.359513 -0.075921 -0.274840 -0.052271 0.167531 -0.620428 0.194909 0.466689 0.217455 0.099526 -0.308839 0.087917 0.019107 -0.155025 0.015995 -0.051848 -0.288897 -0.195151 -0.005712 0.193374 0.417486 0.181125 -0.399686 0.263803 0.292995 -0.382687 -0.489064 0.018604 0.044135 0.372344 -0.116946 0.516513 0.326789 -0.210290 0.107702 -0.375457 0.162337 -0.539057 0.056362 0.151534 -0.037846 -0.001280 -0.090788 0.081168 0.122193 -0.253498 -0.023496 -0.077839 0.330785
3382 -0.044358 0.139493 -0.024709 -0.386479 0.494798 0.132727 0.018514 -0.023574 0.113994 0.011102 0.632986 0.063035 0.252632 0.259432 -0.125734 -0.432648 0.116580 0.022135 0.205792 0.278760 -0.102084 -0.887806 -0.075677 -0.366367 -0.094490 0.242679 -0.096354 -0.178576 0.184393 0.803373 0.339746 0.668623 0.440016 0.353855 -0.626498 0.276886 -0.503170 0.578953 -0.301924 -0.513185 0.519721 -0.327240 0.457501 0.504446 0.153091 -0.025273 -1.167303 -0.080714 -0.415050 0.712842 -0.048067 -0.290751 0.028996 -0.671215 -0.266835 -0.170038 -0.417431 0.041809 0.334418 0.191714 0.025775 -0.276555 0.318130 0.153646
2845 0.187388 0.452759 0.315142 -0.525740 0.242388 -0.061239 -0.028807 -0.035843 0.258229 0.367666 0.897587 0.083179 0.260683 0.159926 -0.140707 -0.628362 -0.036028 -0.229008 0.173828 0.272594 0.325436 -0.609800 0.107630 -0.351646 0.021659 0.129906 0.066839 -0.005719 0.219382 0.898882 0.274057 0.653531 0.394813 0.322236 -0.460432 0.217816 -0.286203 0.581372 -0.181779 -0.790070 0.268945 -0.326927 0.733460 0.362948 0.464012 -0.240632 -0.856239 -0.257816 -0.403221 0.925358 -0.100497 -0.143886 0.292007 -0.400189 -0.094304 0.075287 -0.444930 -0.140479 0.295907 0.105784 -0.414550 -0.335547 0.137434 0.248816
2714 0.263451 0.239776 -0.155605 -0.413382 0.284205 -0.022656 -0.275725 -0.244645 0.032131 -0.043787 0.614007 0.280687 0.325939 0.265011 -0.266529 -0.522909 0.094790 -0.337048 -0.049718 0.263736 0.083772 -0.697490 0.166357 -0.357162 -0.171280 0.256649 0.108626 0.078106 0.152702 0.711079 0.142746 0.779881 0.656082 0.694830 -0.673836 0.173428 -0.446909 0.581659 -0.140204 -0.465909 0.363445 -0.135753 0.761504 0.479107 -0.025200 -0.212481 -0.895628 -0.217536 -0.120142 0.923500 -0.060346 -0.142154 0.163896 -0.447305 -0.062309 -0.094414 -0.371822 -0.169660 0.382377 0.073154 -0.287541 -0.191657 0.299837 0.256477
283 -0.168510 0.312943 -0.419699 0.217814 0.037541 0.407671 0.594338 0.406295 0.048325 0.073839 0.055009 0.457509 -0.317916 -0.033283 0.055299 0.404359 0.133752 -0.258990 0.187104 -0.107722 -0.734639 0.337036 0.170474 0.254100 0.065030 -0.457657 0.093956 0.052814 -0.187118 -0.049008 -0.072130 -0.283585 -0.175662 -0.144973 -0.118095 0.203261 0.284787 -0.537934 -0.022285 0.389648 -0.382400 -0.340181 0.065333 -0.200843 0.035388 -0.084878 0.291024 0.181846 -0.159394 -0.080431 0.019671 0.038117 -0.033107 -0.080079 0.149606 0.111650 -0.183190 -0.336154 -0.235748 -0.135231 -0.173504 0.037449 0.068840 -0.201193
2738 0.332434 0.236967 -0.105697 -0.220047 0.511359 0.349395 -0.209172 -0.193024 -0.204199 0.194980 0.832697 0.089325 0.118350 0.025896 -0.093252 -0.639383 0.188327 -0.340681 -0.042812 0.281461 0.073077 -0.865480 -0.281061 -0.393169 -0.288612 0.180836 0.324328 -0.093339 0.385684 0.713399 0.088587 0.489053 0.703369 0.320752 -0.644204 0.439596 -0.358929 0.205290 -0.254941 -0.649067 0.011387 -0.138994 0.741908 0.228053 -0.039076 0.412219 -0.943732 -0.042328 -0.102628 0.814189 -0.066274 -0.066115 0.416155 -0.399928 0.122499 0.298957 -0.537429 -0.439829 0.027725 -0.243616 -0.263042 -0.161617 0.357602 0.212676
2972 0.444467 0.029944 -0.232018 -0.140766 0.516203 0.058363 -0.103584 -0.377604 -0.035363 0.049008 0.812430 0.267962 0.511003 0.022169 -0.358467 -0.506724 0.482674 -0.521228 0.077870 -0.084975 -0.027134 -0.609736 0.133306 -0.605433 -0.130497 0.188317 0.263617 0.062976 0.128871 0.283455 0.330388 0.461392 0.450344 0.412738 -0.607284 0.303592 -0.557733 0.878182 -0.139962 -0.638941 -0.001128 -0.202338 0.678532 0.225208 -0.025199 0.303978 -1.193841 -0.090977 -0.121270 0.722005 -0.075015 -0.079184 0.234829 -0.522045 -0.015454 0.177027 -0.253061 -0.053130 0.179418 -0.045767 -0.153987 0.135738 0.145008 0.397887
2691 0.638492 0.062661 -0.187938 -0.462838 0.627540 0.331648 -0.228864 -0.285198 -0.091861 0.189010 0.491031 0.098868 0.238320 0.243026 -0.405073 -0.606701 0.109633 -0.271053 0.335673 -0.029098 -0.072497 -0.775054 0.097525 -0.511852 -0.146257 0.357960 0.190698 -0.082788 0.427652 1.007135 0.304303 0.511582 0.231844 0.396842 -0.565083 0.118663 -0.236696 0.319462 -0.410572 -0.624433 -0.013783 -0.209056 0.700607 0.198929 0.274822 0.168411 -1.059511 -0.000690 -0.184043 0.733065 -0.030170 -0.231817 0.111232 -0.266272 -0.401159 -0.035827 -0.355400 -0.282217 0.339985 -0.030757 -0.002996 -0.260643 0.247543 0.191700
210 -0.146535 0.148226 -0.309552 -0.405962 -0.245628 0.282055 0.360601 0.192526 -0.178235 -0.118400 -0.126909 0.344662 -0.280888 0.231109 0.152538 0.039854 -0.300989 -0.278745 0.144080 0.104337 -0.518758 0.394491 0.315733 0.129117 0.059935 -0.212856 0.205942 -0.105441 -0.306394 0.107268 0.141478 -0.275854 -0.187618 -0.083799 0.487432 0.317142 0.129282 -0.266259 0.401669 0.561214 -0.406949 -0.462815 -0.191272 -0.139613 -0.123821 -0.015177 0.569155 0.164844 -0.592466 0.071842 -0.226708 -0.066378 -0.478589 -0.193526 0.273467 -0.264397 -0.246764 0.077775 0.170548 0.048127 -0.074845 -0.053731 0.050500 0.224189
14 -0.129119 0.048426 -0.571586 0.015537 -0.341852 0.217805 0.280198 0.253646 -0.072112 0.031340 -0.091989 0.423128 -0.189962 -0.105217 -0.026771 0.206004 -0.040623 -0.256347 0.070705 -0.000805 -0.559005 0.315119 0.352263 0.237439 0.049848 -0.359097 0.254162 -0.006267 -0.056809 -0.218931 0.066936 -0.102365 -0.000603 -0.164343 0.178468 0.362563 0.051119 -0.456765 0.114479 0.455323 -0.438912 -0.565926 0.017973 -0.142641 0.138377 0.094391 0.200631 0.257471 -0.157045 0.109657 -0.163086 0.274799 -0.417361 0.097093 0.307818 -0.262078 -0.080939 -0.012764 0.017835 -0.038569 -0.322519 0.309672 -0.162538 0.072789
385 -0.240886 0.292846 -0.537460 -0.066891 -0.246777 0.305988 0.466701 0.324141 0.093646 0.172836 0.181764 0.429056 -0.206203 -0.287583 0.017302 0.412479 0.223029 -0.415700 0.081308 -0.102979 -0.532126 0.186556 0.221982 0.280052 0.278511 -0.380089 0.274741 -0.154624 -0.188684 -0.209096 -0.009193 -0.206112 -0.428653 0.007968 -0.016025 0.123017 0.138979 -0.332203 0.170046 0.471473 -0.250278 -0.009202 0.000817 -0.161146 -0.025839 -0.012300 0.359312 0.331771 -0.028795 0.205218 -0.048866 0.171009 -0.268473 -0.006207 0.157668 0.006585 -0.129365 -0.118558 -0.480286 -0.229425 -0.019027 0.073113 0.068631 -0.032592
410 -0.160603 0.147646 -0.582600 0.238091 -0.219696 0.458694 0.537339 0.261925 -0.015189 0.066381 -0.081144 0.253321 -0.375626 -0.081159 -0.151470 0.233931 0.253381 -0.215785 0.108175 -0.112521 -0.528496 0.190005 0.556820 0.084081 0.218937 -0.192229 0.290350 -0.364797 -0.210229 -0.214909 -0.014984 0.028663 -0.211661 0.068581 -0.141926 0.122820 0.417913 -0.411007 0.049153 0.241875 -0.210470 -0.180330 -0.263560 -0.410838 0.086397 -0.071706 0.403133 0.477437 -0.307057 -0.070215 -0.016015 0.007626 -0.088128 0.041310 0.088929 -0.103761 -0.181925 -0.071410 -0.259729 0.046171 -0.311180 0.010453 0.052639 0.002642
118 -0.072588 0.042910 -0.461737 0.289985 0.090621 0.468870 0.517376 0.147220 0.053669 0.177711 0.110254 0.568609 -0.110653 -0.407320 -0.174540 0.167387 0.335633 -0.344933 0.321964 -0.025678 -0.429139 0.397848 0.318168 0.155407 0.163930 -0.458001 0.136356 -0.237660 -0.150736 -0.257670 -0.212438 -0.294396 -0.162300 0.096772 0.034914 0.303918 0.111804 -0.342347 0.317269 0.427827 -0.440351 0.057853 0.117476 -0.079463 -0.014832 -0.033389 0.489344 0.414602 -0.155083 -0.152876 -0.125924 0.135166 -0.158235 -0.204681 0.323881 -0.174671 -0.131866 0.031634 -0.209084 -0.033725 -0.072658 -0.042905 -0.149972 0.027647
46 -0.120729 -0.032003 -0.511436 0.094486 -0.074619 0.647239 0.634065 0.328439 0.057029 -0.071409 0.141089 0.440541 -0.173933 -0.084535 -0.192932 0.232595 0.065836 -0.350792 0.355430 -0.126077 -0.199546 0.493277 0.213826 0.108846 0.135638 -0.417900 0.099663 -0.222852 -0.058904 -0.365472 -0.157024 -0.242249 -0.019369 0.035652 0.122667 0.000203 0.467180 -0.367489 0.082151 0.299156 -0.245037 -0.316321 0.011786 -0.049392 -0.019062 -0.081787 0.458855 0.380477 -0.199463 0.261820 -0.046773 0.185779 -0.158521 0.015708 0.064267 -0.207954 -0.047925 -0.183305 -0.281707 -0.167337 -0.247558 0.079390 -0.256376 -0.062795
3038 0.516252 0.257779 -0.042832 -0.356007 0.468488 -0.011483 -0.258250 0.011499 0.084313 0.287000 0.588740 0.286452 0.355661 0.136345 -0.228649 -0.570553 0.376064 -0.424909 0.287823 -0.271795 0.068977 -0.957051 0.146604 -0.522351 -0.073984 0.386795 0.200823 -0.330573 0.468512 0.825877 0.504016 0.441999 0.642420 0.013146 -0.788622 0.546013 -0.572382 0.403478 0.140902 -0.498950 0.455525 0.033830 0.322242 0.094765 -0.109034 0.138101 -0.986077 0.089815 0.033233 0.679757 -0.184407 -0.214641 0.119039 -0.504858 -0.167034 -0.134497 -0.280879 -0.230585 0.072219 0.141834 -0.258609 -0.161343 0.262192 0.143237
186 -0.158514 0.294295 -0.316612 -0.175636 -0.472076 -0.046018 0.235224 0.547787 -0.148055 -0.038825 -0.146434 0.346388 -0.548345 0.279545 0.237441 0.007996 -0.193572 -0.311557 0.211365 0.277569 -0.543066 0.386930 0.404737 0.208834 0.001269 -0.286609 0.286449 -0.109150 -0.190283 -0.157894 0.084279 -0.040522 -0.023755 -0.106793 0.190130 0.187024 0.137181 -0.381231 0.331757 0.313818 -0.334758 -0.256091 0.023240 -0.408995 -0.086271 -0.336945 0.314846 -0.062589 -0.448061 0.080945 -0.058869 0.401479 -0.385331 0.003535 0.164643 -0.290704 -0.091333 0.139934 0.170705 0.052061 -0.242011 -0.220741 -0.121062 0.045507
595 0.111332 0.346084 -0.572518 0.050733 -0.005955 0.086901 0.390625 0.254033 0.216744 0.024717 -0.259444 0.616396 -0.368362 -0.055257 -0.055799 0.575083 0.157236 -0.256020 -0.005383 0.188465 -0.317299 0.363035 0.144587 0.043055 -0.303159 -0.136040 0.508908 -0.062858 -0.036330 -0.246039 0.003839 -0.288477 -0.249529 0.211245 0.087787 0.204888 0.307965 -0.350137 -0.220266 0.343854 -0.389702 -0.165444 -0.049629 -0.018247 -0.071095 -0.056177 0.264870 0.444137 -0.305532 -0.188314 -0.368197 0.147430 -0.234322 0.170890 0.098619 -0.040436 -0.263598 0.266723 -0.305108 -0.074918 -0.222646 -0.093623 0.014392 -0.055679
3044 0.468191 0.162135 -0.059672 -0.438602 0.534212 0.145577 -0.140931 -0.088742 -0.085921 0.212978 0.918755 0.297198 0.311629 0.259326 -0.665228 -0.560066 0.234530 -0.204235 0.088292 -0.245717 0.305971 -0.907511 0.077005 -0.381241 -0.405580 0.275115 0.146166 -0.253520 0.385792 0.724269 -0.072390 0.406392 0.702873 0.203432 -0.626756 0.313805 -0.440750 0.335179 -0.365823 -0.456728 0.000023 0.084317 0.418349 0.198414 0.359076 0.193938 -1.125895 0.015937 -0.192385 0.628848 -0.236549 -0.188977 0.175836 -0.361273 0.139272 0.098707 -0.418749 -0.438974 -0.130924 -0.112694 -0.304610 -0.151264 0.278506 -0.203720
177 0.141353 0.203696 -0.367717 0.146062 -0.318945 0.162958 0.148310 0.213612 -0.013700 0.234394 -0.076110 0.298157 -0.088728 0.103452 -0.030857 0.496281 0.102096 -0.265123 0.274300 0.232829 -0.620844 0.255977 0.481474 0.215128 -0.000500 -0.395748 0.238137 -0.055706 -0.062347 -0.039230 0.017506 0.024313 -0.120221 0.006524 0.227942 0.038254 0.045055 -0.523824 0.163180 0.670090 -0.142449 -0.326732 -0.043618 -0.199366 0.287255 -0.008596 0.562001 0.214658 -0.113793 0.096898 -0.411749 0.176836 -0.434951 0.051848 0.187664 -0.077995 -0.249865 -0.146073 0.052403 0.088149 -0.311862 -0.223686 -0.139679 -0.113464
3742 0.701709 0.124166 -0.097722 -0.263856 0.398530 0.361338 -0.234124 0.038598 -0.023397 -0.011435 0.882951 0.146774 0.502639 0.123863 -0.479520 -0.687159 0.252223 -0.277241 -0.067728 0.054994 -0.303534 -0.838054 -0.113975 -0.540333 -0.306419 0.218080 -0.146262 -0.225920 0.180171 0.595917 0.064427 0.371377 0.644311 0.081686 -0.649212 0.164389 -0.235483 0.300278 -0.195494 -0.722873 0.152741 0.030028 0.588064 0.384540 0.216004 0.313122 -0.908289 0.013510 -0.152639 0.879208 -0.103619 -0.300710 0.288893 -0.197315 -0.142978 0.249151 -0.232934 -0.243392 0.080450 0.091104 -0.513563 -0.241247 0.176614 0.020191
50 -0.054910 -0.058316 -0.518361 -0.166739 -0.278112 0.089494 0.231867 0.176382 0.011679 0.301084 -0.094359 0.416684 -0.103831 0.005799 -0.063090 0.459740 0.047992 -0.512736 0.187073 0.138994 -0.459198 0.153310 0.319134 0.116410 0.054574 -0.191778 0.362672 -0.278161 -0.033081 -0.041325 -0.050396 -0.063727 -0.098421 0.030544 0.352958 0.328388 -0.096069 -0.590384 0.205901 0.530058 -0.234303 -0.432496 -0.142728 -0.224013 0.246764 -0.174870 0.582648 0.151218 -0.171558 0.112175 -0.354275 0.011180 -0.395957 0.116967 0.289653 -0.225546 -0.020038 0.017961 -0.174684 -0.024350 -0.261012 -0.087981 -0.091869 -0.102924
3421 0.410460 0.257757 0.122642 -0.100982 0.305035 0.129574 -0.115175 -0.411054 -0.175204 -0.020860 0.630774 0.249389 0.531676 0.160172 -0.303034 -0.555163 0.066693 -0.350033 0.278915 0.061121 -0.049959 -0.507041 0.044153 -0.536349 -0.320429 0.330343 0.166443 0.090072 0.329676 0.421511 0.272458 0.467753 0.497646 0.282019 -0.821945 0.063266 -0.307216 0.495346 -0.217097 -0.908880 0.296469 -0.270074 0.869742 0.466229 0.109586 0.158165 -0.968969 -0.076517 -0.266211 0.704290 -0.184013 -0.102759 -0.068021 -0.693958 -0.125018 0.003987 -0.293516 -0.327038 0.461507 -0.197634 -0.210866 -0.308217 0.200391 0.430120
159 0.120815 -0.100426 -0.475517 0.338430 -0.244747 0.223590 0.173013 0.518596 0.257953 -0.019972 0.211721 0.546381 0.028643 -0.132106 -0.136570 0.451429 -0.083227 -0.302498 0.029469 0.017701 -0.828663 0.268146 0.615984 0.090522 -0.119653 -0.077166 0.117495 -0.292164 0.024876 -0.463133 0.286049 -0.442807 0.250164 -0.041942 0.003249 0.431344 0.170802 -0.346870 -0.024569 0.228275 -0.360821 -0.128224 -0.154662 -0.104686 0.012297 -0.133208 0.597678 0.284949 0.088726 0.040500 -0.242684 0.351756 -0.239338 0.134109 0.100984 -0.089537 -0.164927 0.072615 -0.326099 -0.012907 0.014438 0.007553 0.090627 -0.034086
2821 0.364126 0.090409 0.094336 -0.257677 0.170841 0.389062 -0.027083 -0.329239 0.078683 0.299885 0.956574 0.418579 0.301303 0.282214 -0.427273 -0.355742 0.201868 -0.281311 0.275190 0.230516 0.151280 -0.536014 -0.121176 -0.459782 -0.258126 0.154094 -0.023544 -0.075307 0.195535 0.514635 0.226440 0.696698 0.626973 0.197133 -0.565367 0.184440 -0.284097 0.658099 -0.075440 -0.491129 0.481221 -0.064036 0.791585 0.514292 0.072124 0.250692 -1.113346 -0.253375 -0.002874 0.630869 -0.297093 -0.176060 0.086643 -0.461034 -0.005215 -0.055385 -0.351036 -0.192144 0.258926 0.135410 -0.079489 -0.357495 0.392124 0.342841
607 -0.011653 0.104141 -0.386522 0.259314 -0.186460 0.535338 0.596214 0.260410 0.021231 0.235559 0.028903 0.516261 -0.201450 -0.143200 0.125380 0.381768 0.232637 -0.168905 0.310030 -0.150023 -0.496126 -0.016562 0.384132 0.126950 0.092493 -0.252054 0.172434 -0.327266 -0.234078 -0.080435 -0.144497 -0.218983 -0.279455 0.018591 -0.096242 0.208182 0.466583 -0.538835 -0.001135 0.198805 -0.337267 -0.135805 0.125949 -0.202034 0.054177 -0.008140 0.741557 0.221154 -0.057274 0.181242 -0.023266 0.243265 -0.167040 -0.094834 0.082255 -0.007129 -0.198183 -0.218478 -0.324983 -0.182081 -0.193229 0.040888 -0.320467 0.076298
2627 0.378726 0.226353 0.012239 -0.306542 0.528079 0.273448 0.023114 -0.227824 -0.093525 0.054122 0.644472 0.020656 0.144211 0.368079 -0.028924 -0.626859 0.514972 -0.184685 0.246992 0.258254 0.137462 -0.601529 0.040342 -0.527703 0.161749 0.386016 0.220991 -0.111438 -0.028267 0.710598 0.429862 0.626438 0.327068 0.149339 -0.634214 -0.040023 0.007177 0.765768 -0.258248 -0.569445 0.216177 0.067069 0.527390 0.387028 0.225872 -0.163776 -1.070471 -0.335753 -0.171039 0.786152 -0.387531 -0.159683 -0.008108 -0.630199 -0.141488 -0.005465 -0.557810 -0.039956 0.562019 0.064503 -0.417740 -0.402752 0.328579 0.185935
353 -0.142876 0.236516 -0.521004 0.034655 -0.285788 0.358349 0.474062 0.380566 0.030427 0.180773 0.067194 0.496857 -0.262122 -0.309933 0.024995 0.251662 0.202420 -0.439563 0.019272 -0.133647 -0.491841 0.218546 0.299712 0.233635 0.206410 -0.302434 0.197249 -0.154701 -0.041800 -0.401425 0.109346 -0.124328 -0.364751 -0.106223 -0.141621 0.071702 0.456535 -0.496444 0.041546 0.206480 -0.284426 -0.353557 -0.003602 -0.254426 0.078200 0.020768 0.286583 0.344593 -0.194177 0.023096 -0.046022 0.004035 -0.092199 -0.064618 0.195582 -0.023900 -0.081352 -0.147614 -0.383729 -0.185423 -0.045773 0.030177 0.017660 -0.112856
38 0.090711 0.111860 -0.657034 0.119953 -0.168474 0.218989 0.230577 0.173203 -0.132552 0.038273 -0.244670 0.348208 -0.275319 0.115669 -0.165224 0.489942 -0.004870 -0.468042 0.261316 0.065602 -0.596330 0.286238 0.371120 0.096322 -0.070243 -0.326203 0.256105 -0.148213 -0.195650 -0.056214 -0.067301 -0.019834 -0.034614 -0.052944 0.236303 0.125674 -0.024481 -0.484544 0.133440 0.512837 -0.100742 -0.405093 -0.090734 -0.251564 0.312695 -0.196303 0.503667 0.138260 -0.272951 0.015326 -0.103541 0.161285 -0.257903 -0.017379 -0.025581 -0.252934 -0.161154 -0.030161 -0.072615 0.180540 -0.347322 -0.147412 -0.007116 -0.126171
441 -0.242982 0.423133 -0.360654 0.251232 -0.116663 0.283518 0.709392 0.311943 -0.018131 0.087470 -0.047999 0.343359 -0.191652 -0.094844 -0.043097 0.384385 0.107836 -0.233699 0.133493 -0.262340 -0.471198 0.300486 0.559351 0.229569 0.081625 -0.211578 0.178054 -0.141495 -0.080995 -0.307067 -0.004861 -0.019365 -0.178986 0.169610 0.182363 0.204661 0.417510 -0.263985 0.092536 0.214746 -0.250447 -0.270827 -0.220316 -0.335060 0.057450 -0.017232 0.229514 0.640161 -0.212454 0.019741 -0.016796 -0.046901 -0.193888 -0.064075 0.005144 -0.299977 -0.332665 -0.143499 -0.382213 -0.033073 -0.128945 -0.125141 0.000116 -0.102822
3201 0.306573 0.151115 -0.475417 -0.091492 0.467807 0.199170 -0.202960 -0.213448 0.071167 0.064697 0.783615 0.103293 0.619598 0.249778 0.092705 -0.710451 0.147678 -0.159955 0.090754 -0.005459 0.000227 -0.708244 0.219967 -0.791387 -0.364455 0.289919 0.289039 0.042218 -0.021109 0.487122 -0.140000 0.501922 0.782700 0.075570 -0.438743 0.413313 -0.218427 0.557616 -0.187853 -0.650853 0.317969 -0.152744 0.644648 0.328394 0.006364 0.496912 -1.021460 0.038581 0.079772 0.831110 -0.452603 -0.413544 -0.065870 -0.409151 -0.176609 0.204237 -0.324891 -0.301596 0.097802 -0.033622 -0.346161 -0.336432 0.339574 -0.057366
2650 0.311166 -0.042826 0.146816 -0.121463 0.338704 0.263379 -0.203650 -0.158081 -0.207702 0.318181 0.872164 0.431921 0.418860 0.081181 -0.490024 -0.769456 0.348090 -0.100229 0.174218 -0.158688 0.117663 -0.734642 0.136721 -0.437449 -0.304993 0.116532 0.352992 -0.050426 0.306770 0.426230 0.340768 0.446318 0.584466 0.271236 -0.745368 0.350640 -0.568431 0.470978 -0.465597 -0.629706 0.277892 -0.221612 0.687348 0.375102 0.035623 0.333893 -0.992090 0.186578 -0.061919 0.436038 -0.360396 -0.140851 -0.051274 -0.400950 -0.138175 0.383386 -0.084551 -0.267543 0.046606 -0.124737 -0.246929 -0.107307 0.560487 0.067448
2843 0.372091 0.171895 -0.219396 -0.184813 0.531736 0.129904 -0.024156 -0.197044 0.395324 0.221963 0.977120 0.180216 0.449790 0.174176 -0.267315 -0.481024 0.028723 -0.358175 0.230102 0.139794 0.129768 -0.477150 0.071890 -0.491849 -0.106925 0.152344 0.387544 -0.043137 0.210092 0.661056 0.624131 0.431564 0.593370 0.072295 -0.473117 0.564252 -0.421518 0.810307 -0.229683 -0.564040 0.094245 0.159070 0.443423 0.279824 0.089886 0.167375 -1.040421 -0.331322 -0.072801 0.886929 -0.217175 -0.311530 0.132806 -0.212855 -0.072638 0.189935 -0.318182 -0.273810 0.267685 0.159107 -0.067911 -0.395171 0.391573 0.086040
294 -0.369044 0.218630 -0.425647 0.073090 -0.006768 0.529093 0.646637 0.215774 -0.070088 0.144109 -0.160097 0.192517 -0.290513 -0.167545 -0.016182 0.498583 0.075643 -0.122883 -0.043156 -0.046288 -0.549375 0.270965 0.522532 0.319437 0.016101 -0.167295 0.108760 -0.312382 -0.074856 -0.324752 -0.008764 -0.040572 -0.055518 0.036835 0.044337 0.147407 -0.024089 -0.262918 -0.081832 0.302784 -0.116028 -0.504090 0.040596 -0.152627 -0.047798 -0.177687 0.439217 0.667447 -0.400382 0.057870 -0.084462 0.055221 -0.071391 0.090914 0.027446 -0.113631 -0.075095 -0.104557 -0.529019 -0.054737 -0.173295 -0.142701 0.010429 -0.109642
3103 0.404684 0.172258 -0.150581 -0.496579 0.482490 0.339071 -0.093654 -0.004159 0.206349 0.085702 0.661544 -0.149714 0.393999 0.164340 -0.184257 -0.500500 0.254529 -0.437187 0.166109 0.249293 0.048628 -0.680471 0.121647 -0.449068 -0.326432 0.449278 0.100826 -0.318155 0.157353 0.503006 0.322937 0.406335 0.475882 0.252438 -0.668938 0.217616 -0.317265 0.572179 -0.213363 -0.489409 0.091795 0.055909 0.569844 0.481997 0.029378 0.185319 -1.217848 0.028281 -0.018320 0.710778 -0.306751 -0.201130 0.287719 -0.371656 -0.129230 0.154048 -0.439597 -0.346439 -0.075735 -0.043920 -0.505897 0.227299 0.559198 0.063791
3162 0.519983 0.459918 -0.017418 -0.433922 0.517291 -0.085046 -0.069937 -0.262622 0.203492 0.064952 0.714335 -0.165218 0.444063 0.117266 0.084028 -0.511468 0.368672 -0.461298 0.214139 0.019764 -0.037248 -0.330499 0.206499 -0.594717 0.007074 0.268328 0.222601 -0.078629 0.175919 0.640718 0.341381 0.576844 0.487942 0.218671 -0.501687 0.202668 -0.402074 0.581337 -0.180896 -0.406423 0.302265 -0.120126 0.617057 0.410885 0.114770 0.157889 -1.252497 -0.022949 -0.472634 0.866499 0.095529 -0.264496 0.288207 -0.412201 -0.123071 0.214360 -0.616455 0.116305 0.108094 -0.194526 0.007190 -0.530404 0.028726 0.267622
2788 0.366306 0.006939 -0.169959 -0.330748 0.501765 0.009242 -0.240148 -0.258652 0.270377 0.225477 0.691981 0.271747 0.067837 0.360555 -0.183671 -0.391611 0.284690 -0.365417 0.172351 -0.119715 0.103672 -0.929089 0.101238 -0.462921 -0.060413 0.371020 -0.014285 -0.313713 0.387680 0.911853 0.368922 0.304037 0.492192 0.203983 -0.607291 0.118236 -0.350748 0.580747 -0.024583 -0.658306 0.083878 0.100079 0.605715 0.329497 0.062041 0.399406 -0.873955 -0.059101 -0.120863 1.011489 -0.195774 -0.260761 -0.082394 -0.455949 -0.325412 0.149481 -0.441629 -0.185459 -0.118694 0.117388 -0.437741 -0.134447 0.387757 0.147560
137 -0.152728 0.183029 -0.458662 -0.018404 -0.347428 0.133349 0.374876 0.269068 0.000168 0.408592 -0.049815 0.359680 -0.021247 -0.039491 -0.070422 0.447131 -0.143214 -0.501969 0.493471 0.128320 -0.497717 0.151390 0.329920 0.194422 -0.241459 -0.340821 0.260478 -0.271831 -0.178655 -0.193829 -0.234037 -0.094446 -0.079694 -0.033934 0.259308 0.161458 0.033016 -0.469158 -0.012641 0.360796 0.002810 -0.377797 -0.164335 -0.373505 0.177741 0.015734 0.440261 0.163012 -0.197861 -0.029568 -0.292911 0.240042 -0.285332 0.099259 0.200668 -0.344088 -0.036752 0.034944 -0.083271 0.015364 -0.444016 -0.143718 -0.017249 -0.226615
489 -0.087865 0.172488 -0.287421 0.167402 -0.150918 0.535506 0.639403 0.394705 -0.092903 0.403947 -0.086813 0.365197 -0.298955 -0.300085 0.008512 0.263647 0.199167 -0.277556 0.256827 0.101383 -0.570410 0.379459 0.564281 0.127212 0.213165 -0.350025 0.090184 -0.320406 -0.138004 -0.079067 -0.074266 -0.172478 -0.064344 0.014091 -0.107043 0.111123 0.459173 -0.539716 -0.040782 0.158295 -0.199432 -0.263032 -0.207041 -0.244598 0.056305 -0.174718 0.301149 0.388038 -0.230413 -0.160736 -0.171663 -0.123709 -0.131863 0.031146 0.093802 -0.065858 -0.141741 -0.165580 -0.137641 0.047861 -0.173483 0.238819 0.119607 0.038749
106 0.220505 0.176606 -0.662484 -0.006791 -0.001113 0.056757 0.237256 0.593814 0.194261 0.187922 -0.141289 0.597909 -0.402295 -0.057391 0.132174 0.478672 0.220026 -0.158538 0.038311 0.245275 -0.268866 0.342104 0.200808 0.030398 -0.072119 -0.060543 0.281927 -0.126524 0.091020 -0.224867 -0.080485 -0.158972 -0.251099 0.241853 0.021046 0.254340 0.316847 -0.335149 -0.211803 0.396401 -0.369547 -0.424718 -0.144552 -0.010894 0.194362 0.163968 0.346665 0.484067 -0.330238 -0.202171 -0.160710 0.237142 -0.327771 -0.036515 0.092709 -0.038272 -0.030083 0.176227 -0.296145 0.092177 -0.187859 0.141574 -0.122627 0.045923
2777 0.392634 0.226306 -0.104561 -0.572219 0.606050 0.030821 -0.155642 -0.364508 0.081038 0.160390 0.625744 0.408038 0.155197 0.135104 -0.089388 -0.687559 0.407517 -0.329719 0.322228 0.101838 0.028841 -0.651419 -0.010647 -0.563124 -0.142875 0.306480 0.025681 -0.129858 0.301505 0.592444 0.128088 0.525689 0.326744 0.223052 -0.586994 0.262466 -0.534950 0.649543 0.175724 -0.584770 0.371195 -0.112929 0.582289 0.303548 0.026266 0.133750 -1.011990 0.065050 0.022435 0.836726 -0.205581 -0.160561 -0.044986 -0.396718 -0.070083 0.006301 -0.303629 -0.334352 0.314052 0.032819 -0.139536 -0.368109 0.331683 0.142782
142 0.041227 0.280070 -0.526005 0.010684 -0.215289 0.218999 0.062125 0.197105 -0.194840 0.412302 0.064056 0.326854 -0.316158 0.042298 0.049424 0.668168 -0.165755 -0.455379 0.289808 -0.085518 -0.455871 0.146458 0.224246 0.264840 0.031099 -0.267258 0.145004 -0.080393 0.040113 -0.124005 -0.048517 -0.087744 -0.291257 0.001765 0.188713 0.276438 0.044280 -0.673880 0.065201 0.429339 -0.171551 -0.453391 -0.182382 -0.219417 0.159044 -0.200800 0.305804 0.030432 -0.143443 -0.055438 -0.262581 0.388926 -0.336903 0.237329 0.238939 -0.344749 -0.224988 -0.180848 0.045745 -0.041978 -0.301451 -0.155365 0.093714 -0.138776
2733 0.497307 0.174094 0.094648 -0.305227 0.260046 0.216762 -0.385313 -0.038658 -0.069571 0.049959 0.826961 0.042976 0.130352 0.443899 -0.265809 -0.476073 0.479253 -0.237296 0.203807 0.069844 0.126099 -0.572594 0.064054 -0.592599 0.134870 0.150287 0.136230 -0.065851 0.025473 0.801851 0.192878 0.850931 0.444819 0.481170 -0.260431 0.354165 -0.280352 0.653876 -0.241825 -0.673575 0.244114 -0.018623 0.634573 -0.075487 0.185796 -0.010504 -1.125354 -0.198718 -0.171799 0.876464 -0.178198 -0.192080 -0.172395 -0.478098 -0.125834 0.015077 -0.441871 -0.107005 0.339902 0.161120 -0.011000 -0.571693 0.198744 -0.048643
2944 0.381487 0.461810 0.127780 -0.528643 0.134967 0.164111 -0.006685 -0.076573 -0.260423 0.041465 0.603786 -0.109118 0.639729 0.501834 0.056729 -0.567035 0.200331 0.015448 0.256610 0.105204 0.003847 -0.685224 -0.028363 -0.396271 -0.088895 0.121843 0.198531 -0.108782 0.299456 0.615974 0.146138 0.455979 0.431809 0.631160 -0.810072 0.270218 -0.293090 0.530181 -0.159106 -0.427779 0.054087 -0.027374 0.823494 0.370291 -0.063324 0.140054 -1.132668 -0.177635 -0.518498 1.175925 0.013038 -0.109723 0.041735 -0.241313 -0.282103 0.005638 -0.326276 -0.027555 0.314551 -0.327765 -0.059464 -0.453824 0.083457 0.419866
442 -0.065623 0.137491 -0.878972 0.114544 0.019123 0.119021 0.227020 0.531227 0.189042 0.148255 -0.115107 0.618096 -0.396035 0.057898 0.016354 0.463343 0.093952 -0.117340 -0.030328 0.138313 -0.403853 0.255928 0.366390 0.158316 -0.021119 0.083564 0.205307 -0.098661 -0.037349 -0.209302 -0.316104 -0.393451 -0.343381 0.167060 0.220243 0.095882 0.160010 -0.277990 -0.278619 0.373112 -0.511996 -0.325206 0.117351 -0.137973 -0.037197 0.026761 0.243905 0.520464 -0.199009 0.011430 -0.339315 0.280411 -0.242610 0.296854 -0.094702 0.011242 0.030571 0.122069 -0.053060 -0.041863 -0.220727 -0.135615 0.148444 -0.207325
3500 0.482792 -0.005511 -0.124427 -0.272034 0.529352 0.095980 -0.216274 -0.337316 -0.106153 0.193122 0.606143 0.188031 0.471521 0.421602 -0.238220 -0.568642 0.175954 -0.400970 0.201402 0.014869 -0.071407 -0.671117 -0.011612 -0.602729 -0.228082 -0.028474 0.170878 -0.329578 0.175614 0.463320 0.386100 0.504626 0.827372 0.209334 -0.666350 0.231392 -0.590947 0.609700 -0.288044 -0.549181 0.018937 -0.121282 0.728108 0.017762 0.039933 0.077987 -1.027605 -0.038331 0.127735 0.794180 -0.144155 -0.109039 0.175726 -0.555301 -0.180493 -0.135453 -0.506881 -0.072083 0.170028 0.189088 -0.012227 -0.324968 0.095599 0.356990
1095 -0.306349 0.087701 -0.686263 0.281461 -0.100955 0.183665 0.368283 0.102902 -0.098689 -0.026897 0.126289 0.248513 -0.371487 -0.088902 -0.043105 0.160647 0.009741 -0.298646 0.197418 0.099796 -0.561196 0.232667 0.448969 0.111734 -0.057624 -0.441304 0.054151 -0.321119 0.124454 -0.262111 -0.118509 -0.027378 -0.318464 -0.014513 0.032387 0.340530 0.233382 -0.360654 0.226950 0.541100 -0.108224 -0.203534 0.076074 0.074360 -0.141616 -0.047802 0.475690 0.577230 -0.112794 -0.243204 -0.037553 0.106513 -0.204656 -0.087525 0.137794 -0.106626 -0.308881 -0.229321 -0.457300 -0.201122 -0.158296 -0.121971 0.170933 -0.021100
30 -0.058453 0.185984 -0.336860 0.066428 -0.387245 0.225362 0.371532 0.087011 -0.055243 -0.068513 -0.121817 0.483268 -0.322454 0.101460 -0.153517 0.351604 0.015939 -0.315754 -0.030857 0.059064 -0.727812 0.396812 0.270268 0.098099 -0.064065 -0.411945 0.375130 -0.123754 -0.041463 -0.362020 -0.100915 -0.046769 -0.070798 -0.044771 0.026700 0.279892 0.174582 -0.388860 0.325423 0.042628 -0.395118 -0.461896 0.188834 -0.362732 0.066659 -0.074985 0.389475 0.295095 -0.357289 -0.051639 -0.207951 0.085096 -0.292553 0.156545 0.092113 -0.212961 -0.110141 0.056447 0.257347 0.235504 -0.440367 0.253829 0.083531 -0.140303
3362 0.427508 0.191359 0.208887 -0.724783 0.375830 0.038614 -0.290456 -0.317540 0.060264 -0.080442 0.956059 -0.072345 0.346161 0.410136 -0.376033 -0.791583 -0.029578 -0.040756 0.230573 0.098807 0.111300 -0.604900 -0.183525 -0.703608 -0.165612 0.366650 0.089293 0.068619 0.032701 0.513984 0.179839 0.316477 0.092714 0.489420 -0.540896 0.000663 -0.237826 0.705488 -0.140964 -0.144329 0.373054 -0.107120 0.566640 -0.073070 0.116735 -0.026838 -1.154826 -0.154614 -0.457681 0.840566 -0.132450 -0.197600 -0.426360 -0.612956 -0.185458 0.150363 -0.884459 0.088991 0.719117 -0.011169 -0.199479 -0.638637 0.198738 0.201620
3070 0.135344 0.144692 -0.157529 -0.246415 0.538796 0.109338 -0.260432 -0.217306 -0.009384 0.332312 0.763112 0.060666 0.202962 0.221394 -0.259617 -0.616797 0.187729 -0.477561 0.079619 -0.065531 -0.193816 -0.595532 -0.145758 -0.486380 -0.396988 0.132479 0.418758 0.086372 0.268130 0.881528 0.148207 0.426210 0.471611 0.338433 -0.774952 0.266567 -0.626139 0.301467 -0.037813 -0.793730 0.294172 0.042786 0.659270 0.258538 0.072580 0.180868 -0.992284 -0.083476 -0.081159 0.659467 -0.297369 -0.167985 0.070702 -0.654391 0.048617 0.258673 -0.368258 0.100700 0.314218 -0.213447 -0.232964 -0.369256 0.213940 0.077613
3407 0.005213 0.049273 -0.193267 -0.463368 0.704172 -0.124661 -0.425764 -0.181088 0.142631 0.071012 0.736045 0.200750 0.457624 0.341315 -0.100065 -0.589590 0.025810 -0.343158 0.235118 0.061528 -0.004343 -0.717441 -0.065105 -0.137194 -0.056621 0.349949 -0.107025 -0.058485 0.046048 0.755221 0.472201 0.451290 0.243374 0.184826 -0.248147 0.155680 -0.179633 0.276864 -0.174423 -0.559327 0.351301 0.009515 0.532332 0.385424 0.090669 -0.061979 -1.531741 -0.185303 -0.247766 0.788361 -0.531341 -0.114385 -0.181396 -0.513978 0.044625 0.022061 -0.672154 -0.021299 0.522505 0.079337 -0.197618 -0.409296 0.176647 0.011274
315 -0.121155 -0.300477 -0.689365 -0.321742 -0.480529 0.156560 0.202342 0.184934 -0.169826 0.016526 -0.128813 0.500645 -0.249774 -0.055086 -0.031364 0.473726 -0.279968 -0.453626 0.147332 -0.033466 -0.516775 0.026078 0.232484 0.220971 0.042819 -0.332639 0.134507 -0.224662 -0.083027 -0.304058 -0.177583 -0.105709 -0.160420 0.111892 0.099897 0.485003 -0.033994 -0.615673 -0.077063 0.286227 -0.300631 -0.398203 -0.063020 -0.217290 -0.081447 -0.019721 0.328335 0.337785 -0.080510 -0.026653 -0.239766 0.106411 -0.309030 0.038826 0.348667 -0.190452 -0.231646 -0.072852 0.022200 -0.143270 -0.229375 -0.007403 0.030665 -0.264924
2948 0.509808 0.185706 0.264373 -0.691678 0.177167 0.064350 -0.167009 -0.221785 -0.204242 0.205029 0.964454 -0.063847 0.411723 0.418842 0.027955 -0.799546 -0.067126 -0.030266 0.126545 0.209978 0.475746 -0.674369 0.128932 -0.461704 -0.029170 0.231597 0.046860 -0.217983 0.074871 0.429385 0.171463 0.759517 -0.125168 0.350121 -0.505593 0.265927 -0.540774 1.003160 0.019369 -0.193631 0.496839 0.069802 0.443999 0.231132 0.214431 -0.227551 -1.005667 -0.098841 -0.660541 0.863090 -0.135977 -0.188927 -0.180245 -0.502640 -0.106054 0.146600 -0.725974 0.069128 0.696393 -0.133780 -0.396644 -0.472827 0.054727 0.297822
3518 0.339079 0.166260 0.206761 -0.698741 0.395862 0.248858 -0.436898 0.119087 0.065116 -0.125967 0.817665 -0.096352 0.372634 0.477672 -0.057204 -0.753820 0.280105 -0.198553 0.280113 -0.007914 0.538874 -0.748510 -0.012681 -0.324708 -0.010058 0.310382 -0.016311 0.104134 -0.055141 0.600594 0.100733 0.929411 0.011026 -0.016894 -0.421522 0.410615 -0.304523 0.676873 -0.047470 -0.288952 0.140725 -0.182553 0.833986 0.228213 0.178359 0.179549 -1.133058 -0.137532 -0.597334 0.768726 -0.046483 -0.196447 -0.235117 -0.407321 -0.121206 0.042207 -0.675262 0.166173 0.754946 0.152351 -0.054964 -0.571383 -0.113135 0.347584
756 -0.022455 0.084856 -0.559370 0.170154 -0.524280 0.177952 0.369743 0.173524 0.061844 0.126370 0.018091 0.344640 -0.322324 -0.014038 -0.035396 0.080857 0.006431 -0.382269 -0.163850 0.081033 -0.681479 0.309907 0.273089 0.093179 -0.192551 -0.327882 0.122986 -0.015356 -0.195810 -0.161844 -0.069361 -0.041522 0.042216 0.191221 0.141002 0.292852 0.070185 -0.282357 0.187760 0.254653 -0.327670 -0.480168 0.074823 -0.297592 0.193788 -0.052981 0.644425 0.248326 -0.340111 0.014039 -0.162477 0.146783 -0.426304 0.019082 0.280195 -0.105160 -0.008978 -0.139356 0.158070 0.075010 -0.277812 0.189798 -0.190209 -0.172078
2929 0.580841 0.384691 -0.010038 -0.487772 0.653962 0.003517 0.026940 -0.138581 -0.258573 0.238403 0.381141 0.385605 0.395703 0.336285 -0.280702 -0.499801 0.247210 -0.393387 0.043167 -0.088670 0.094448 -0.702303 -0.095023 -0.262219 -0.012035 0.317424 0.022922 -0.242636 0.300952 0.685964 0.328919 0.581761 0.499256 0.235970 -0.636689 0.424316 -0.559190 0.453767 -0.334186 -0.515060 0.143057 -0.410360 0.738341 0.391430 0.300521 0.099063 -1.080463 -0.068700 0.078323 0.783959 -0.286459 -0.262781 0.209760 -0.346150 0.181327 0.145887 -0.351412 -0.098161 0.190983 0.085946 -0.099693 -0.126907 0.291149 0.357130
55 0.272722 -0.192035 -0.381587 0.268354 -0.134774 0.225255 0.233403 0.456745 0.016589 0.000433 0.082692 0.532443 -0.131951 -0.473369 -0.027915 0.489715 -0.046413 -0.207253 0.141181 0.156279 -0.645753 0.118505 0.625651 0.202191 -0.222305 -0.250939 0.214253 0.091421 -0.182783 -0.613876 0.292987 -0.332196 0.213276 -0.016084 -0.110670 0.343307 0.051986 -0.402256 -0.106096 0.141362 -0.405237 -0.291139 -0.047854 -0.103567 0.125967 -0.052629 0.610505 0.388300 0.001518 0.197163 -0.274490 0.204134 -0.108388 0.156430 0.230946 -0.162851 0.003634 0.066192 -0.315783 -0.162092 0.084390 0.200397 0.098008 -0.166187
2786 0.412793 0.392253 -0.065352 -0.449058 0.254283 0.289367 -0.141953 -0.323582 0.127535 0.051335 0.634463 0.071648 0.042944 0.156041 -0.118121 -0.512237 0.304814 -0.377615 0.388727 -0.076808 0.095902 -0.628807 -0.005501 -0.517149 -0.111050 0.349161 0.195341 -0.092430 0.207146 0.804603 0.533221 0.534671 0.547643 0.056787 -0.491779 0.241277 -0.398972 0.635371 -0.336693 -0.588754 0.239532 -0.230586 0.841101 0.493856 0.202146 0.170627 -1.023566 -0.008146 -0.191965 0.599080 -0.326071 -0.312874 0.135740 -0.555799 -0.296723 0.035118 -0.412552 -0.053055 0.333316 -0.050214 -0.097198 -0.176914 0.163022 0.255109
479 -0.053042 -0.004999 -0.302071 0.222376 0.018370 0.523323 0.527281 0.376210 0.041826 0.103644 -0.066512 0.449727 0.072744 0.036192 0.047110 0.354375 -0.175053 -0.285659 0.046035 -0.092931 -0.337926 0.225961 0.429495 0.305600 0.181224 -0.256506 0.167567 -0.156516 -0.007573 -0.210519 -0.034112 -0.001522 -0.325195 0.049959 -0.014911 0.014010 0.162726 -0.331737 0.214657 0.319841 -0.450675 -0.360770 0.280414 -0.172439 -0.081599 -0.035355 0.668924 0.178901 -0.444469 0.107832 -0.139219 0.227022 -0.416173 -0.151069 -0.009217 -0.073175 -0.038232 -0.280886 -0.572682 -0.112543 -0.166623 0.069873 -0.019830 -0.183582
3748 0.408084 0.218029 -0.462306 -0.289484 0.238332 0.406373 -0.303147 -0.299972 -0.235915 0.252601 0.723165 0.231696 0.275404 0.102369 -0.258970 -0.440921 0.085523 -0.068290 0.109045 -0.041056 -0.089229 -0.804448 0.060847 -0.344201 -0.128014 0.261927 0.080181 0.076396 0.202683 0.683596 0.307605 0.571852 0.788960 0.315071 -0.487690 0.159324 -0.557968 0.608242 -0.095800 -0.717763 0.355645 -0.234204 0.649741 0.354003 0.105137 0.055692 -0.918106 0.147107 0.028166 0.931497 -0.298620 -0.375145 0.137961 -0.316188 -0.262824 0.412364 -0.176118 -0.364549 0.185300 0.013274 -0.215316 -0.195778 0.472463 0.058785
762 -0.198630 0.121096 -0.521281 -0.323544 -0.356288 0.238637 0.192916 0.417056 -0.222281 -0.252234 -0.248912 0.262797 -0.291303 0.223966 0.073769 0.109797 -0.217495 -0.273505 0.051030 0.226050 -0.476152 0.385471 0.293875 0.197585 0.024085 -0.321580 0.362478 -0.027235 -0.240620 -0.091889 -0.016179 -0.192796 -0.153034 0.067872 0.324688 0.246029 0.217662 -0.300897 0.279754 0.254888 -0.264956 -0.412345 -0.066921 -0.214122 0.023868 -0.171578 0.643976 0.017658 -0.440454 0.041478 -0.216202 0.042688 -0.461952 -0.168942 0.102267 -0.293682 -0.479798 -0.144821 0.248741 0.085443 -0.125921 -0.136918 0.130838 0.225933
92 -0.235954 0.177188 -0.394385 0.045063 -0.321852 0.587002 0.651545 0.081566 0.143081 0.077924 -0.032595 0.556661 -0.497060 -0.262120 0.015788 0.308272 0.077633 -0.298924 0.084454 -0.021258 -0.380569 0.282442 0.484924 0.222918 0.160942 -0.118176 0.198152 -0.063450 -0.237283 -0.301260 0.220884 -0.160857 -0.235686 -0.028638 -0.235645 0.136625 0.344037 -0.355480 0.191288 0.364060 -0.209347 -0.284223 -0.319352 -0.081744 0.086673 -0.046308 0.284524 0.376904 -0.040840 0.033926 -0.205668 -0.029619 -0.131025 -0.046594 0.020852 0.005571 -0.145025 -0.415558 -0.241361 -0.017493 -0.211790 0.061940 -0.037307 -0.238105
1415 0.119936 0.077503 -0.645350 0.194734 -0.135819 0.019326 0.243942 0.389220 0.133100 0.203060 -0.271416 0.693262 -0.259131 -0.008342 -0.006086 0.473850 -0.004527 -0.321547 -0.011894 0.071931 -0.381939 0.368058 0.255625 0.287384 -0.097237 0.086047 0.287608 -0.119171 0.094954 -0.216893 -0.240811 -0.190914 -0.263657 0.104200 0.064908 0.100229 0.448896 -0.253834 -0.240082 0.359261 -0.541630 -0.293680 -0.064598 0.111265 0.002984 0.148977 0.286381 0.509817 -0.213840 -0.146354 -0.330580 0.241761 -0.170459 0.013027 -0.060313 -0.046514 -0.278553 0.057428 -0.253982 -0.067780 -0.410545 -0.039248 -0.069699 -0.164646
3069 0.275185 -0.147650 0.073734 -0.435023 0.540509 0.070184 -0.319796 -0.174199 -0.039012 -0.063843 0.871856 -0.108986 0.398360 0.310872 -0.136558 -0.602922 0.150127 -0.308797 0.106112 0.369911 0.117033 -0.716229 0.211164 -0.317034 0.042447 -0.021369 -0.006805 -0.059145 0.163364 0.732647 0.277651 0.655106 0.262523 0.275268 -0.540651 0.377128 -0.214650 0.595355 -0.272872 -0.441568 0.059242 -0.325352 0.336161 0.280836 -0.041978 0.222440 -1.044547 -0.514393 -0.410190 0.890661 -0.164239 -0.307519 -0.080985 -0.624207 0.025244 0.232875 -0.650869 0.054018 0.531156 0.273363 -0.115782 -0.364543 0.357885 0.049665
850 -0.177987 -0.001301 -0.413462 0.295283 -0.044879 0.569645 0.514750 0.236346 0.013604 0.041412 0.161424 0.532936 -0.079783 -0.088085 0.001367 0.390355 0.051193 -0.349486 0.114079 -0.074495 -0.337838 0.311910 0.475899 0.254183 -0.114473 -0.268497 0.183075 -0.186977 -0.128764 -0.331480 -0.229943 -0.257438 -0.261656 -0.023386 -0.066813 0.062772 0.283340 -0.414593 0.200183 0.317816 -0.333450 -0.183194 0.026654 0.109080 -0.039596 -0.120546 0.546694 0.084707 -0.315036 0.173023 -0.096045 0.249738 -0.056580 -0.162455 0.345381 0.098495 -0.215257 -0.163298 -0.236600 -0.057668 -0.249312 0.015973 -0.166536 -0.137905
703 -0.469313 0.027278 -0.500764 0.230474 -0.059741 0.527838 0.422867 0.227298 0.153401 0.072747 -0.039956 0.443420 -0.244510 0.046109 -0.192771 0.494308 -0.169609 -0.399520 0.151272 0.091910 -0.424575 0.381969 0.528135 0.120416 0.001346 -0.283478 -0.189667 0.013276 -0.016847 0.021316 -0.106668 -0.110059 -0.210119 -0.107136 0.097628 0.154596 0.430178 -0.526235 -0.131934 0.244973 -0.393230 -0.021462 0.288286 -0.090463 0.026768 -0.111002 0.338209 0.335369 -0.184496 0.064057 -0.191357 0.297591 -0.250922 -0.027747 0.203861 -0.165993 -0.082938 -0.108422 -0.303363 -0.212456 -0.064672 0.040130 0.098279 -0.014299
945 -0.221800 -0.064767 -0.664899 -0.108184 -0.313609 0.303709 0.248790 0.221648 0.039621 0.064137 -0.331967 0.388822 -0.134131 0.045687 -0.211734 0.141311 0.091304 -0.271803 0.022834 -0.067032 -0.506827 0.301279 0.344993 0.141976 -0.049509 -0.431277 0.296855 -0.152254 -0.045003 -0.137287 0.013893 -0.142801 -0.108391 -0.094467 0.372178 0.306433 0.025691 -0.303860 0.057397 0.581878 -0.203798 -0.552415 -0.096882 -0.125068 0.258587 -0.146242 0.463363 0.349160 0.098621 0.242328 -0.297758 0.068611 -0.531268 -0.090176 0.120503 -0.080701 -0.253592 -0.086595 -0.097633 -0.074210 -0.206357 -0.005050 -0.052776 -0.007497
88 0.034121 0.092064 -0.460504 0.005516 -0.032307 0.479496 0.422342 0.167883 0.102756 0.002359 0.124555 0.362649 -0.314596 -0.391979 -0.094266 0.522745 0.021418 -0.418694 0.005259 0.161406 -0.504440 0.309846 0.287195 0.275778 0.171419 -0.289022 0.243647 -0.087904 -0.125186 -0.128322 0.083844 -0.318979 -0.141280 -0.229017 0.027412 0.306910 0.200081 -0.381084 0.048908 0.504350 -0.432638 -0.359080 -0.059264 -0.100934 -0.117916 -0.072622 0.350877 0.213964 -0.173975 -0.183592 0.270100 -0.028314 -0.185937 -0.129158 0.238025 -0.000299 -0.336722 -0.325261 -0.420987 -0.093671 -0.447048 -0.211086 0.161473 0.006512
3469 0.430161 -0.074927 -0.036829 -0.628103 0.351378 0.122807 -0.110508 -0.211131 0.053467 0.280381 0.568916 -0.021383 0.465217 0.247856 -0.342283 -0.455542 0.173632 -0.264973 0.182808 0.084287 0.185585 -0.387584 -0.038272 -0.587402 -0.074752 0.501989 -0.067233 -0.009412 0.142928 0.768133 0.399894 0.575452 0.328441 0.234459 -0.700130 0.178204 -0.369088 0.341400 -0.025166 -0.361866 0.011406 -0.175632 0.705002 0.516048 -0.106122 0.228284 -1.106569 0.034451 -0.263042 0.976864 -0.039336 -0.378131 0.138994 -0.385873 -0.378698 0.140724 -0.506483 -0.077654 0.174632 0.157706 -0.387362 -0.369010 0.395566 0.233199
2886 0.241831 0.145815 0.077921 -0.327988 0.446311 -0.126585 -0.167587 -0.072376 0.175250 -0.017703 0.821931 -0.001634 0.230268 0.350947 -0.074733 -0.459641 0.335685 -0.382010 0.416933 0.146362 0.217201 -0.744346 -0.065140 -0.415279 0.085740 0.123453 -0.198622 -0.100699 0.214553 0.457228 0.045637 0.426096 0.208660 0.367800 -0.735829 0.324462 -0.405026 0.524958 -0.294866 -0.665949 0.136998 0.080509 0.578384 0.221519 -0.085718 0.168555 -1.146643 -0.097375 -0.484555 0.905121 -0.087356 -0.232428 0.065651 -0.603413 -0.143854 -0.019680 -0.344098 -0.134410 0.700016 0.266496 -0.328023 -0.656705 0.163760 0.070869
3018 0.274384 0.162687 0.011889 -0.613806 0.341264 0.235335 -0.283678 0.025776 -0.253891 0.360363 1.086160 -0.004842 0.370998 0.459316 -0.029557 -0.500652 0.431461 0.049808 0.009607 0.035526 0.406161 -0.539095 -0.161914 -0.385249 0.156726 0.530704 0.016426 -0.040990 0.019028 0.437131 0.157553 0.744614 0.425655 0.374286 -0.536664 0.036413 -0.355018 0.580035 -0.206856 -0.243617 0.344451 -0.219695 0.447780 0.153140 0.046550 0.196934 -1.052996 -0.178425 -0.643615 0.963726 -0.119880 -0.170585 -0.028727 -0.437991 -0.012603 0.292204 -0.682692 0.027773 0.815102 0.091247 -0.179448 -0.557535 -0.012900 0.374738
602 -0.170081 0.240728 -0.416099 0.180861 -0.436803 0.257633 0.706471 0.223973 0.012886 0.142430 -0.005397 0.443553 -0.343322 -0.051843 -0.000558 0.265354 0.172788 -0.408513 0.171829 -0.338226 -0.543769 0.269269 0.452246 0.191179 -0.001357 -0.132259 -0.026341 -0.408683 -0.126988 -0.212337 0.039457 -0.224486 -0.207216 0.115327 -0.070752 0.149682 0.205997 -0.491875 -0.041950 0.364258 -0.269418 -0.249169 -0.094636 -0.247158 -0.027759 -0.090257 0.230147 0.514862 -0.162270 -0.099182 0.273973 0.009762 -0.117596 0.098727 -0.074645 -0.021519 -0.294653 -0.202665 -0.294406 -0.176398 -0.213148 0.250173 0.008363 -0.062392
189 -0.429275 0.051588 -0.597298 -0.009661 -0.463486 0.145576 0.340194 0.249667 -0.122877 0.234344 -0.134156 0.369073 -0.126310 -0.070840 0.003031 0.327853 0.193659 -0.501145 0.163249 0.248278 -0.371689 0.251139 0.123820 0.261583 -0.196087 -0.418192 0.259795 -0.274370 0.003707 -0.377562 0.134178 -0.082627 -0.156851 -0.239802 0.157803 0.281473 -0.126651 -0.371963 0.203280 0.278920 -0.446994 -0.262609 -0.095756 -0.128337 0.179305 0.024926 0.319244 0.384158 -0.204293 0.187485 -0.232046 0.088481 -0.465354 0.077639 0.276267 -0.245798 0.068704 0.040445 0.036694 0.066694 -0.403708 -0.033091 -0.154032 0.013671
110 0.284639 0.138391 -0.426547 -0.129628 -0.280641 0.229407 0.296111 0.313003 0.191117 0.366737 0.027024 0.254595 -0.349600 -0.053163 -0.214951 0.379137 0.084872 -0.110970 0.454349 0.010520 -0.540142 0.303651 0.333822 0.466294 -0.000051 -0.078568 -0.022435 -0.018267 -0.024235 -0.084324 0.022491 -0.377395 -0.211122 -0.079168 0.089727 0.189889 -0.099468 -0.583105 0.294897 0.224275 -0.075501 -0.382460 0.085566 -0.139965 -0.131792 -0.121143 0.573172 0.623395 -0.291958 -0.055751 -0.300924 0.186408 -0.350349 -0.085951 0.266237 -0.296820 -0.439328 -0.186294 0.025912 0.323438 -0.190461 0.188178 -0.084016 -0.348811
3181 0.000254 0.335537 -0.204662 -0.276606 0.386091 0.095482 0.066215 -0.288325 -0.058677 0.005551 0.874430 0.274788 0.630652 0.261500 -0.129723 -0.417525 0.260226 -0.200464 0.203210 0.097581 0.133197 -0.820709 -0.137585 -0.471707 -0.082969 0.377720 -0.117081 -0.087123 0.035278 0.681399 0.169267 0.338260 0.475388 -0.147062 -0.577134 0.107421 -0.291400 0.722940 -0.119120 -0.426161 0.338514 -0.048849 0.642032 0.405555 0.017777 -0.044919 -1.212628 -0.356498 -0.320688 0.697889 -0.437743 -0.337626 0.128167 -0.503001 -0.124686 -0.299102 -0.594486 -0.153522 0.456199 0.220421 -0.334499 -0.384841 -0.007542 0.297592
260 -0.111583 -0.036923 -0.465717 0.120050 -0.180320 0.227255 0.305354 0.052777 -0.061297 0.028618 -0.266294 0.514442 -0.166146 -0.137130 -0.171153 0.379053 -0.085422 -0.268955 0.015619 0.196790 -0.671774 0.525965 0.403437 0.339947 -0.020029 -0.412709 0.306673 0.111894 -0.356911 0.071269 -0.057848 -0.109632 -0.211659 -0.037091 0.058967 0.253010 -0.009445 -0.365853 0.223016 0.202366 -0.184192 -0.357320 -0.105519 0.109951 0.231501 -0.077830 0.400493 0.269012 -0.214456 0.120921 -0.300733 0.155122 -0.506308 0.136487 0.069855 -0.305049 -0.106746 -0.002002 0.044543 0.056555 -0.238650 -0.194956 -0.035677 0.265520
229 -0.087542 -0.052084 -0.230442 0.018491 -0.460465 0.256704 0.201178 0.141485 0.073040 0.110334 -0.020877 0.416032 -0.411295 -0.111936 0.011039 0.407815 0.015157 -0.404820 0.087639 0.084287 -0.399807 -0.024779 0.369280 0.392364 0.144691 -0.433515 0.156784 -0.240256 0.138440 -0.330592 -0.326886 -0.255885 0.147166 -0.019423 0.109912 0.366537 0.209433 -0.597695 -0.027511 0.268479 -0.188212 -0.411799 -0.134335 -0.304814 0.267703 0.084274 0.392861 0.262980 -0.257379 0.132148 -0.200661 0.112630 -0.397143 0.112741 0.059297 -0.399460 -0.170578 -0.118083 0.089438 -0.063946 -0.366546 -0.088538 -0.019439 -0.311392
439 -0.104081 0.033721 -0.455937 0.081919 -0.072700 0.625369 0.272041 0.197946 0.277312 -0.039137 0.070426 0.428088 -0.254308 -0.109981 -0.081771 0.134223 0.113276 -0.327628 0.068152 0.139826 -0.571548 0.178713 0.225384 0.257863 0.061765 -0.313665 0.030031 -0.144508 -0.115532 -0.158977 0.183579 0.002966 -0.167238 0.008373 0.168797 0.244817 0.478865 -0.313332 0.081955 0.384773 -0.378031 -0.241310 0.154058 -0.246590 -0.034135 0.082033 0.595597 0.597162 -0.177232 0.064938 0.078840 0.204334 -0.331875 -0.029260 0.513076 -0.151409 0.065382 0.030259 -0.403101 -0.066831 -0.191932 -0.187962 0.289500 -0.060319
3035 0.417672 -0.028769 -0.168346 -0.362025 0.201495 0.131736 0.005460 -0.034623 0.174143 -0.001977 0.731686 0.021441 0.331146 0.297660 0.025462 -0.700962 0.268252 -0.352133 0.087462 -0.062022 0.306801 -0.528557 0.066936 -0.574950 -0.140188 0.483525 0.018099 -0.160310 0.138171 0.663288 0.250206 0.544882 0.265007 0.304400 -0.466285 0.273049 -0.252321 0.585557 -0.384557 -0.491992 0.385451 0.125163 0.782119 0.169552 -0.021477 0.198287 -1.322641 -0.150274 -0.347018 0.828058 0.052752 -0.149550 -0.243227 -0.699560 -0.257637 0.077336 -0.508292 -0.008873 0.238068 0.323548 -0.135411 -0.513429 0.068442 0.397084
193 -0.132169 0.110819 -0.581211 0.068357 -0.263504 0.286867 0.449966 -0.000885 -0.100266 0.044174 -0.147625 0.272907 -0.337535 0.142165 0.008887 0.346274 0.023667 -0.442848 0.212020 -0.174847 -0.671879 0.369519 0.238429 0.192965 -0.018756 -0.455602 0.354384 0.006537 -0.049255 -0.453030 -0.010974 -0.078696 -0.039378 -0.004671 0.258151 0.377941 -0.087115 -0.447644 0.014715 0.245861 -0.383467 -0.251284 0.118432 -0.029826 0.163465 -0.218628 0.308168 0.369070 -0.219305 0.056224 -0.095641 0.303650 -0.328679 0.042502 0.169298 -0.347699 -0.235053 0.059746 0.236809 0.181380 -0.252216 0.221148 -0.001104 -0.276405
2908 0.483485 0.377151 -0.144704 -0.560821 0.439210 0.189110 -0.179135 -0.053188 -0.316023 0.056290 0.537014 0.160881 0.263828 0.332185 -0.523006 -0.484958 0.445422 -0.096718 0.166947 0.097263 -0.078871 -0.569772 0.031577 -0.561182 -0.252089 0.326431 0.076775 -0.170979 0.366494 0.620959 0.110994 0.486189 0.522868 0.236280 -0.797003 0.446713 -0.356098 0.522089 -0.409513 -0.555498 0.141286 0.025239 0.771043 0.125435 -0.045209 0.550241 -1.195403 0.001712 -0.026458 0.870087 -0.293320 -0.061785 0.225879 -0.263287 -0.069781 0.041313 -0.095413 -0.068375 -0.145201 -0.130549 -0.333123 -0.242415 0.314643 0.019829
1112 0.194262 0.184064 -0.621926 -0.027321 -0.174663 0.108552 0.230821 0.378680 0.247054 0.046980 -0.193585 0.595145 -0.242842 -0.038031 0.117135 0.554114 0.169233 -0.134207 -0.110142 0.040741 -0.428575 0.261250 0.167646 0.119968 -0.116718 -0.046113 0.214809 -0.060680 0.091658 -0.187061 -0.057168 -0.126284 -0.209939 0.153744 0.166448 0.359150 0.413563 -0.256973 -0.300118 0.424954 -0.486314 -0.239091 -0.115002 0.026040 -0.076739 0.132859 0.311735 0.365416 -0.362419 -0.155257 -0.327939 0.298043 -0.263640 -0.018320 0.266606 0.020587 -0.144080 0.136396 -0.386695 -0.085960 -0.389704 -0.101701 -0.113150 -0.323497
2711 0.202310 0.220718 -0.072266 -0.542501 0.615044 -0.037460 -0.383709 -0.098369 0.023143 0.176516 0.716382 0.149362 0.453979 0.167050 -0.366246 -0.565196 0.192544 -0.276563 0.323090 0.068995 -0.060017 -0.761800 0.249063 -0.405536 -0.001185 0.402985 0.157041 -0.269187 0.154416 0.650018 0.413728 0.636552 0.582636 0.364631 -0.718774 0.201946 -0.620783 0.510437 -0.363352 -0.508236 0.120750 -0.028266 0.751151 0.367847 -0.007965 0.166025 -0.763818 -0.071667 -0.206861 0.437968 -0.027788 -0.315558 -0.039418 -0.544172 -0.042322 0.167118 -0.337396 -0.218008 0.313386 -0.113027 -0.183041 -0.328238 0.376542 0.307795
396 -0.017442 0.079952 -0.453517 0.045421 0.140910 0.416571 0.486432 0.538961 0.001666 -0.117456 -0.189782 0.586437 -0.168530 -0.229075 -0.298307 -0.004233 0.074681 -0.160697 0.158784 -0.075149 -0.215991 0.031274 0.240893 0.172228 0.050836 -0.427004 0.293354 -0.236841 -0.122256 -0.054305 -0.000136 -0.026270 -0.151132 -0.043993 -0.037914 0.444620 0.541323 -0.448515 0.170622 0.249456 -0.064399 -0.198845 -0.035332 -0.181831 -0.069789 -0.059774 0.770624 0.485222 -0.096646 -0.041090 0.014269 0.314297 -0.275437 0.128983 0.471399 -0.179827 -0.362926 -0.053078 -0.287527 -0.249473 -0.201971 0.074031 0.176125 -0.103443
348 -0.399325 0.237093 -0.424022 0.111866 -0.208112 0.399663 0.533107 0.269129 -0.116738 -0.007379 0.184811 0.477751 -0.262875 0.031018 -0.048977 0.294055 0.135825 -0.204910 -0.004043 0.133912 -0.486590 0.117460 0.237659 0.113489 0.407536 -0.227444 0.309107 -0.190529 -0.075774 -0.450689 0.116336 -0.037860 -0.303080 -0.056092 -0.021247 -0.030996 -0.035925 -0.289307 -0.079622 0.259408 -0.082181 -0.347994 0.085264 -0.165168 -0.095871 -0.030195 0.816261 0.452127 -0.106782 -0.019835 -0.152800 0.171178 -0.226648 0.075820 -0.039062 -0.002290 -0.355689 -0.116548 -0.510848 -0.088005 -0.365851 0.035015 0.118404 -0.038175
